{"learner":{"attributes":{"best_iteration":"94","best_ntree_limit":"95","best_score":"0.32031837496950083","scikit_learn":"{\"n_estimators\": 100, \"objective\": \"reg:squarederror\", \"max_depth\": 3, \"max_leaves\": null, \"max_bin\": null, \"grow_policy\": null, \"learning_rate\": 0.1, \"verbosity\": 1, \"booster\": null, \"tree_method\": null, \"gamma\": null, \"min_child_weight\": null, \"max_delta_step\": null, \"subsample\": null, \"sampling_method\": null, \"colsample_bytree\": null, \"colsample_bylevel\": null, \"colsample_bynode\": null, \"reg_alpha\": 0.01, \"reg_lambda\": 0.1, \"scale_pos_weight\": null, \"base_score\": null, \"missing\": NaN, \"num_parallel_tree\": null, \"random_state\": null, \"n_jobs\": -1, \"monotone_constraints\": null, \"interaction_constraints\": null, \"importance_type\": null, \"gpu_id\": null, \"validate_parameters\": null, \"predictor\": null, \"enable_categorical\": false, \"feature_types\": null, \"max_cat_to_onehot\": null, \"max_cat_threshold\": null, \"eval_metric\": \"rmse\", \"early_stopping_rounds\": 10, \"callbacks\": null, \"kwargs\": {\"min_split_loss\": 0.01}, \"evals_result_\": {\"validation_0\": {\"rmse\": [10.881296386983434, 9.793699008220111, 8.818089613557731, 7.937677790268468, 7.152243285388546, 6.444261332720312, 5.8076577363121515, 5.2310996634884654, 4.716267729813506, 4.252679147980948, 3.8375406580421116, 3.458035418348752, 3.1216294580065145, 2.815871812206444, 2.5446726169661895, 2.29756113294628, 2.0789986355714856, 1.8807222120628175, 1.7035902262623064, 1.546169753405394, 1.4059767708819997, 1.278150496985191, 1.164592903189571, 1.0640290129942958, 0.9712409636825854, 0.8942817277168765, 0.8244619013713662, 0.7614773843225393, 0.70175967262752, 0.654385331577485, 0.6137398234811304, 0.575108188270614, 0.5405149494595558, 0.508043337256952, 0.4821630522634575, 0.4590165935576636, 0.44123126970321636, 0.42507744483557125, 0.41049765035408353, 0.3990640624143236, 0.39136707937855425, 0.3804450463576142, 0.3738082729976931, 0.3674948197431951, 0.36225500792735343, 0.35886363813475075, 0.3554079367101688, 0.35205097623468035, 0.34919036868103376, 0.34547620895496434, 0.3437075898940671, 0.341070331842638, 0.33829146023641715, 0.3367529308166849, 0.33484586513079057, 0.33352007191105043, 0.33463280648901106, 0.3327430094780247, 0.33149532748824845, 0.3306196381718182, 0.3298824435364626, 0.32779126706438366, 0.32825305700645335, 0.32784828943846067, 0.3274675517639126, 0.32701779268859504, 0.3274358158993889, 0.3257606312926781, 0.327230751464738, 0.32789913527615555, 0.32795881125193077, 0.328013957493483, 0.32727274077539315, 0.3266909626698148, 0.32612363898088786, 0.3247506173326827, 0.32459464109852976, 0.32403303971298364, 0.3229118841930271, 0.3239538936708556, 0.3232333115404774, 0.32262802162356885, 0.32260006555775295, 0.3221572362826669, 0.3222929294143349, 0.32252061107376556, 0.32192622149103217, 0.3219634778923274, 0.3229546167160012, 0.3225907748011432, 0.3226075294123163, 0.3219787391683212, 0.3215331261265086, 0.3206606260044847, 0.32031837496950083, 0.32228480969047846, 0.32211405345845073, 0.3219907605252118, 0.3218169230328675, 0.3218788667637884]}}, \"_estimator_type\": \"regressor\"}"},"feature_names":["dim_height","dim_width","dim_depth","dim_weight","display_size","num_usb","num_hdmi","display_type","energyclass","display_resolution","dim_color","smart","usb","wifi","dim_density","display_pixeldensity","display_relativeenergy","is_company_tcl","is_company_lg","is_company_hisense","is_company_dyras","is_company_samsung","is_company_sony","is_company_tesla","is_company_philips","is_company_panasonic","is_company_loewe","is_company_gaba","is_company_nokia","is_company_vortex","is_company_smart","is_company_strong"],"feature_types":["float","float","float","float","float","float","float","float","float","float","float","int","int","int","float","float","float","int","int","int","int","int","int","int","int","int","int","int","int","int","int","int"],"gradient_booster":{"model":{"gbtree_model_param":{"num_parallel_tree":"1","num_trees":"100","size_leaf_vector":"0"},"tree_info":[0,0,0,0,0,0,0,0,0,0,0,0,0,0,0,0,0,0,0,0,0,0,0,0,0,0,0,0,0,0,0,0,0,0,0,0,0,0,0,0,0,0,0,0,0,0,0,0,0,0,0,0,0,0,0,0,0,0,0,0,0,0,0,0,0,0,0,0,0,0,0,0,0,0,0,0,0,0,0,0,0,0,0,0,0,0,0,0,0,0,0,0,0,0,0,0,0,0,0,0],"trees":[{"base_weights":[1.2072342E1,1.1239807E1,1.2486519E1,1.1590595E1,1.070146E1,1.1928678E1,1.2796486E1],"categories":[],"categories_nodes":[],"categories_segments":[],"categories_sizes":[],"default_left":[1,0,0,0,0,0,0],"id":0,"left_children":[1,3,5,-1,-1,-1,-1],"loss_changes":[7.092969E1,3.0673828E0,1.2865234E1,0E0,0E0,0E0,0E0],"parents":[2147483647,0,0,1,1,2,2],"right_children":[2,4,6,-1,-1,-1,-1],"split_conditions":[5.25E1,1.5E0,3.5E0,1.1590595E0,1.070146E0,1.1928678E0,1.2796487E0],"split_indices":[4,9,6,0,0,0,0],"split_type":[0,0,0,0,0,0,0],"sum_hessian":[2.47E2,8.3E1,1.64E2,4.9E1,3.4E1,6E1,1.04E2],"tree_param":{"num_deleted":"0","num_feature":"32","num_nodes":"7","size_leaf_vector":"0"}},{"base_weights":[1.08670225E1,1.0118521E1,1.123938E1,9.596435E0,1.0410557E1,1.0737795E1,1.1518066E1],"categories":[],"categories_nodes":[],"categories_segments":[],"categories_sizes":[],"default_left":[1,0,0,0,0,0,0],"id":1,"left_children":[1,3,5,-1,-1,-1,-1],"loss_changes":[5.728125E1,2.4794922E0,1.03515625E1,0E0,0E0,0E0,0E0],"parents":[2147483647,0,0,1,1,2,2],"right_children":[2,4,6,-1,-1,-1,-1],"split_conditions":[5.25E1,4.1E1,3.5E0,9.596435E-1,1.0410557E0,1.0737795E0,1.1518067E0],"split_indices":[4,4,6,0,0,0,0],"split_type":[0,0,0,0,0,0,0],"sum_hessian":[2.47E2,8.3E1,1.64E2,3.1E1,5.2E1,6E1,1.04E2],"tree_param":{"num_deleted":"0","num_feature":"32","num_nodes":"7","size_leaf_vector":"0"}},{"base_weights":[9.7820425E0,9.109089E0,1.0116804E1,9.39496E0,8.67046E0,9.665802E0,1.0367366E1,1.0102205E1,1.0782077E1],"categories":[],"categories_nodes":[],"categories_segments":[],"categories_sizes":[],"default_left":[1,0,0,0,0,0,0,0,0],"id":2,"left_children":[1,3,5,-1,-1,-1,7,-1,-1],"loss_changes":[4.6259766E1,2.0942383E0,8.324219E0,0E0,0E0,0E0,3.4570312E-1,0E0,0E0],"parents":[2147483647,0,0,1,1,2,2,6,6],"right_children":[2,4,6,-1,-1,-1,8,-1,-1],"split_conditions":[5.25E1,1.5E0,3.5E0,9.3949604E-1,8.67046E-1,9.665802E-1,6.55E1,1.0102205E0,1.0782077E0],"split_indices":[4,9,6,0,0,0,4,0,0],"split_type":[0,0,0,0,0,0,0,0,0],"sum_hessian":[2.47E2,8.3E1,1.64E2,4.9E1,3.4E1,6E1,1.04E2,6.5E1,3.9E1],"tree_param":{"num_deleted":"0","num_feature":"32","num_nodes":"9","size_leaf_vector":"0"}},{"base_weights":[8.805822E0,8.412802E0,9.287134E0,8.605257E0,7.805957E0,8.837019E0,9.502737E0,8.302907E0,8.885096E0],"categories":[],"categories_nodes":[],"categories_segments":[],"categories_sizes":[],"default_left":[1,0,0,0,0,0,0,0,0],"id":3,"left_children":[1,3,5,7,-1,-1,-1,-1,-1],"loss_changes":[3.8751953E1,9.131836E0,2.1035156E0,1.1743164E0,0E0,0E0,0E0,0E0,0E0],"parents":[2147483647,0,0,1,1,2,2,3,3],"right_children":[2,4,6,8,-1,-1,-1,-1,-1],"split_conditions":[6.453346E1,1.5E0,3.5E0,3.5E0,7.805957E-1,8.837019E-1,9.502737E-1,8.3029073E-1,8.885096E-1],"split_indices":[4,9,6,6,0,0,0,0,0],"split_type":[0,0,0,0,0,0,0,0,0],"sum_hessian":[2.47E2,1.37E2,1.1E2,1.03E2,3.4E1,3.7E1,7.3E1,5.1E1,5.2E1],"tree_param":{"num_deleted":"0","num_feature":"32","num_nodes":"9","size_leaf_vector":"0"}},{"base_weights":[7.9270096E0,7.5733595E0,8.360096E0,7.969344E0,7.314214E0,7.955699E0,8.553763E0,7.236292E0,8.377401E0],"categories":[],"categories_nodes":[],"categories_segments":[],"categories_sizes":[],"default_left":[1,0,0,0,1,0,0,0,0],"id":4,"left_children":[1,3,5,-1,7,-1,-1,-1,-1],"loss_changes":[3.1354492E1,8.087891E0,1.652832E0,0E0,7.495117E-1,0E0,0E0,0E0,0E0],"parents":[2147483647,0,0,1,1,2,2,4,4],"right_children":[2,4,6,-1,8,-1,-1,-1,-1],"split_conditions":[6.453346E1,3.5E0,3.5E0,7.969344E-1,5E-1,7.955699E-1,8.5537636E-1,7.236292E-1,8.377401E-1],"split_indices":[4,7,6,0,26,0,0,0,0],"split_type":[0,0,0,0,0,0,0,0,0],"sum_hessian":[2.47E2,1.37E2,1.1E2,5.3E1,8.4E1,3.7E1,7.3E1,7.9E1,5E0],"tree_param":{"num_deleted":"0","num_feature":"32","num_nodes":"9","size_leaf_vector":"0"}},{"base_weights":[7.1359477E0,6.4640565E0,7.324899E0,7.1545663E0,7.7571177E0,7.34155E0,6.837716E0],"categories":[],"categories_nodes":[],"categories_segments":[],"categories_sizes":[],"default_left":[0,0,1,0,0,0,0],"id":5,"left_children":[1,-1,3,5,-1,-1,-1],"loss_changes":[2.6498047E1,0E0,8.443359E0,3.0800781E0,0E0,0E0,0E0],"parents":[2147483647,0,0,2,2,3,3],"right_children":[2,-1,4,6,-1,-1,-1],"split_conditions":[4.55E1,6.4640564E-1,7.25E1,3.5E0,7.757118E-1,7.34155E-1,6.837716E-1],"split_indices":[4,0,4,7,0,0,0],"split_type":[0,0,0,0,0,0,0],"sum_hessian":[2.47E2,5.5E1,1.92E2,1.39E2,5.3E1,8.6E1,5.3E1],"tree_param":{"num_deleted":"0","num_feature":"32","num_nodes":"7","size_leaf_vector":"0"}},{"base_weights":[6.4235144E0,6.747813E0,6.096572E0,6.5748672E0,7.237959E0,5.603273E0,6.2477794E0,6.4655104E0,7.0503063E0,5.943005E0,6.418047E0],"categories":[],"categories_nodes":[],"categories_segments":[],"categories_sizes":[],"default_left":[0,0,0,1,0,0,0,0,0,0,0],"id":6,"left_children":[1,3,5,7,-1,-1,9,-1,-1,-1,-1],"loss_changes":[2.1957031E1,5.538086E0,5.637207E0,9.49707E-2,0E0,0E0,9.453125E-1,0E0,0E0,0E0,0E0],"parents":[2147483647,0,0,1,1,2,2,3,3,6,6],"right_children":[2,4,6,8,-1,-1,10,-1,-1,-1,-1],"split_conditions":[3.5E0,6.55E1,4.15E1,2.725E1,7.237959E-1,5.603273E-1,2.8605E1,6.465511E-1,7.050306E-1,5.943005E-1,6.418047E-1],"split_indices":[7,4,4,3,0,0,2,0,0,0,0],"split_type":[0,0,0,0,0,0,0,0,0,0,0],"sum_hessian":[2.47E2,1.23E2,1.24E2,9.2E1,3.1E1,3E1,9.4E1,7.6E1,1.6E1,3.5E1,5.9E1],"tree_param":{"num_deleted":"0","num_feature":"32","num_nodes":"11","size_leaf_vector":"0"}},{"base_weights":[5.78275E0,5.5318747E0,6.139472E0,5.238459E0,5.7736573E0,5.9747863E0,6.474545E0,5.3711977E0,4.9008555E0],"categories":[],"categories_nodes":[],"categories_segments":[],"categories_sizes":[],"default_left":[1,0,0,0,0,0,0,0,0],"id":7,"left_children":[1,3,5,7,-1,-1,-1,-1,-1],"loss_changes":[1.8600586E1,7.2304688E0,1.5861816E0,2.718506E-1,0E0,0E0,0E0,0E0,0E0],"parents":[2147483647,0,0,1,1,2,2,3,3],"right_children":[2,4,6,8,-1,-1,-1,-1,-1],"split_conditions":[3.5E0,5.25E1,6.55E1,2.5E0,5.7736576E-1,5.974786E-1,6.474545E-1,5.371198E-1,4.9008557E-1],"split_indices":[6,4,4,9,0,0,0,0,0],"split_type":[0,0,0,0,0,0,0,0,0],"sum_hessian":[2.47E2,1.46E2,1.01E2,6.7E1,7.9E1,6.9E1,3.2E1,4.7E1,2E1],"tree_param":{"num_deleted":"0","num_feature":"32","num_nodes":"9","size_leaf_vector":"0"}},{"base_weights":[5.205644E0,5.4797635E0,4.929459E0,5.3974504E0,6.260781E0,4.8141317E0,5.387605E0,4.919593E0,5.4605293E0,4.760749E0,5.713204E0],"categories":[],"categories_nodes":[],"categories_segments":[],"categories_sizes":[],"default_left":[0,0,0,0,0,1,0,0,0,0,0],"id":8,"left_children":[1,3,5,7,-1,9,-1,-1,-1,-1,-1],"loss_changes":[1.5902344E1,4.418213E0,3.8615723E0,5.888672E-1,0E0,1.9794922E0,0E0,0E0,0E0,0E0,0E0],"parents":[2147483647,0,0,1,1,2,2,3,3,5,5],"right_children":[2,4,6,8,-1,10,-1,-1,-1,-1,-1],"split_conditions":[3.5E0,7.6E1,7.25E1,1.665E1,6.2607807E-1,5E-1,5.3876054E-1,4.919593E-1,5.4605293E-1,4.760749E-1,5.713204E-1],"split_indices":[7,4,4,3,0,26,0,0,0,0,0],"split_type":[0,0,0,0,0,0,0,0,0,0,0],"sum_hessian":[2.47E2,1.23E2,1.24E2,1.12E2,1.1E1,1E2,2.4E1,1.4E1,9.8E1,9.5E1,5E0],"tree_param":{"num_deleted":"0","num_feature":"32","num_nodes":"11","size_leaf_vector":"0"}},{"base_weights":[4.6864157E0,4.4582124E0,4.966234E0,4.4060655E0,5.3495445E0,5.478075E0,4.8858643E0,4.0367317E0,4.5126224E0,3.9810226E0,4.910638E0],"categories":[],"categories_nodes":[],"categories_segments":[],"categories_sizes":[],"default_left":[1,1,0,0,0,0,0,0,0,0,0],"id":9,"left_children":[1,3,5,7,-1,-1,9,-1,-1,-1,-1],"loss_changes":[1.3470703E1,3.9177246E0,1.7490234E0,3.213379E0,0E0,0E0,1.1010742E-1,0E0,0E0,0E0,0E0],"parents":[2147483647,0,0,1,1,2,2,3,3,6,6],"right_children":[2,4,6,8,-1,-1,10,-1,-1,-1,-1],"split_conditions":[6.453346E1,5E-1,2.1428573E-1,4.1E1,5.349545E-1,5.478075E-1,1.76E1,4.0367317E-1,4.5126224E-1,3.9810225E-1,4.910638E-1],"split_indices":[4,26,16,4,0,0,3,0,0,0,0],"split_type":[0,0,0,0,0,0,0,0,0,0,0],"sum_hessian":[2.47E2,1.37E2,1.1E2,1.3E2,7E0,1.4E1,9.6E1,3E1,1E2,3E0,9.3E1],"tree_param":{"num_deleted":"0","num_feature":"32","num_nodes":"11","size_leaf_vector":"0"}},{"base_weights":[4.2189384E0,3.9659133E0,4.4397187E0,3.8841949E0,4.5288115E0,4.3075514E0,4.7394276E0,3.7053254E0,3.993281E0,3.4740486E0,4.3512955E0,4.977972E0,4.402832E0],"categories":[],"categories_nodes":[],"categories_segments":[],"categories_sizes":[],"default_left":[0,1,1,0,0,0,1,0,0,0,0,0,0],"id":10,"left_children":[1,3,5,7,-1,9,11,-1,-1,-1,-1,-1,-1],"loss_changes":[1.1958496E1,3.4971924E0,3.0612793E0,4.3566895E-1,0E0,1.7681885E0,8.5388184E-1,0E0,0E0,0E0,0E0,0E0,0E0],"parents":[2147483647,0,0,1,1,2,2,3,3,5,5,6,6],"right_children":[2,4,6,8,-1,10,12,-1,-1,-1,-1,-1,-1],"split_conditions":[3.5E0,2.72E1,6.55E1,1.3299999E1,4.5288116E-1,4.1E1,3.1439999E1,3.7053254E-1,3.9932808E-1,3.4740487E-1,4.3512955E-1,4.9779722E-1,4.402832E-1],"split_indices":[6,3,4,3,0,4,2,0,0,0,0,0,0],"split_type":[0,0,0,0,0,0,0,0,0,0,0,0,0],"sum_hessian":[2.47E2,1.16E2,1.31E2,1.02E2,1.4E1,9.2E1,3.9E1,4E1,6.2E1,5E0,8.7E1,2.2E1,1.7E1],"tree_param":{"num_deleted":"0","num_feature":"32","num_nodes":"13","size_leaf_vector":"0"}},{"base_weights":[3.79826E0,4.0172997E0,3.577844E0,3.9500406E0,4.6594644E0,3.6533618E0,3.1914139E0,3.576529E0,4.0039544E0,3.4559593E0,3.7679186E0],"categories":[],"categories_nodes":[],"categories_segments":[],"categories_sizes":[],"default_left":[0,0,0,0,0,0,0,0,0,0,0],"id":11,"left_children":[1,3,5,7,-1,9,-1,-1,-1,-1,-1],"loss_changes":[1.0416992E1,3.3902588E0,2.386963E0,7.495117E-1,0E0,9.5703125E-1,0E0,0E0,0E0,0E0,0E0],"parents":[2147483647,0,0,1,1,2,2,3,3,5,5],"right_children":[2,4,6,8,-1,10,-1,-1,-1,-1,-1],"split_conditions":[3.5E0,7.6E1,2.5E0,6.142717E-5,4.6594644E-1,2.155E1,3.191414E-1,3.576529E-1,4.0039545E-1,3.4559593E-1,3.7679186E-1],"split_indices":[7,4,9,14,0,3,0,0,0,0,0],"split_type":[0,0,0,0,0,0,0,0,0,0,0],"sum_hessian":[2.47E2,1.23E2,1.24E2,1.12E2,1.1E1,1.03E2,2.1E1,1.5E1,9.7E1,3.9E1,6.4E1],"tree_param":{"num_deleted":"0","num_feature":"32","num_nodes":"11","size_leaf_vector":"0"}},{"base_weights":[3.4193711E0,3.6165805E0,3.2209146E0,3.5557218E0,4.1977158E0,3.137918E0,3.5518644E0,3.4677172E0,3.7944715E0,3.0968814E0,3.8396397E0],"categories":[],"categories_nodes":[],"categories_segments":[],"categories_sizes":[],"default_left":[0,0,0,1,0,1,0,0,0,0,0],"id":12,"left_children":[1,3,5,7,-1,9,-1,-1,-1,-1,-1],"loss_changes":[8.437744E0,2.7836914E0,2.2271729E0,9.667969E-1,0E0,1.6240234E0,0E0,0E0,0E0,0E0,0E0],"parents":[2147483647,0,0,1,1,2,2,3,3,5,5],"right_children":[2,4,6,8,-1,10,-1,-1,-1,-1,-1],"split_conditions":[3.5E0,7.6E1,7.25E1,2.725E1,4.1977158E-1,5E-1,3.5518643E-1,3.4677172E-1,3.7944716E-1,3.0968815E-1,3.8396397E-1],"split_indices":[7,4,4,3,0,26,0,0,0,0,0],"split_type":[0,0,0,0,0,0,0,0,0,0,0],"sum_hessian":[2.47E2,1.23E2,1.24E2,1.12E2,1.1E1,1E2,2.4E1,8.3E1,2.9E1,9.5E1,5E0],"tree_param":{"num_deleted":"0","num_feature":"32","num_nodes":"11","size_leaf_vector":"0"}},{"base_weights":[3.0783422E0,2.8812134E0,3.250492E0,2.7963233E0,3.2291791E0,3.1464915E0,3.486896E0,2.8442485E0,2.563301E0,3.106056E0,3.8803842E0,2.4943476E0,3.1809494E0,3.6745257E0,3.1636798E0],"categories":[],"categories_nodes":[],"categories_segments":[],"categories_sizes":[],"default_left":[0,1,1,0,0,0,1,0,0,0,0,0,0,0,0],"id":13,"left_children":[1,3,5,7,9,11,13,-1,-1,-1,-1,-1,-1,-1,-1],"loss_changes":[7.387451E0,2.4662476E0,2.0599365E0,2.6782227E-1,4.9682617E-1,1.2193604E0,1.1402893E0,0E0,0E0,0E0,0E0,0E0,0E0,0E0,0E0],"parents":[2147483647,0,0,1,1,2,2,3,3,4,4,5,5,6,6],"right_children":[2,4,6,8,10,12,14,-1,-1,-1,-1,-1,-1,-1,-1],"split_conditions":[3.5E0,2.1099998E1,6.55E1,2.5E0,1.2000001E1,4.1E1,5.7364945E-5,2.8442487E-1,2.563301E-1,3.1060562E-1,3.8803843E-1,2.4943475E-1,3.1809494E-1,3.674526E-1,3.1636798E-1],"split_indices":[6,3,4,9,8,4,15,0,0,0,0,0,0,0,0],"split_type":[0,0,0,0,0,0,0,0,0,0,0,0,0,0,0],"sum_hessian":[2.47E2,1.16E2,1.31E2,9.4E1,2.2E1,9.2E1,3.9E1,7.7E1,1.7E1,1.9E1,3E0,5E0,8.7E1,2.4E1,1.5E1],"tree_param":{"num_deleted":"0","num_feature":"32","num_nodes":"15","size_leaf_vector":"0"}},{"base_weights":[2.7715442E0,2.620119E0,2.9574957E0,2.5785737E0,3.3430812E0,2.8771136E0,3.2473447E0,2.5141442E0,2.837685E0,2.4393399E0,2.9181788E0,3.136811E0,3.8560534E0],"categories":[],"categories_nodes":[],"categories_segments":[],"categories_sizes":[],"default_left":[1,1,1,1,0,0,0,0,0,0,0,0,0],"id":14,"left_children":[1,3,5,7,-1,9,11,-1,-1,-1,-1,-1,-1],"loss_changes":[6.1271973E0,3.1965332E0,1.5696411E0,1.4050903E0,0E0,8.00354E-1,2.747345E-1,0E0,0E0,0E0,0E0,0E0,0E0],"parents":[2147483647,0,0,1,1,2,2,3,3,5,5,6,6],"right_children":[2,4,6,8,-1,10,12,-1,-1,-1,-1,-1,-1],"split_conditions":[6.453346E1,5E-1,2.5E0,1.485E1,3.3430812E-1,2.1099998E1,8.1E1,2.5141442E-1,2.837685E-1,2.4393399E-1,2.9181787E-1,3.136811E-1,3.8560534E-1],"split_indices":[4,26,5,3,0,3,4,0,0,0,0,0,0],"split_type":[0,0,0,0,0,0,0,0,0,0,0,0,0],"sum_hessian":[2.47E2,1.37E2,1.1E2,1.3E2,7E0,8.7E1,2.3E1,1.05E2,2.5E1,8E0,7.9E1,2E1,3E0],"tree_param":{"num_deleted":"0","num_feature":"32","num_nodes":"13","size_leaf_vector":"0"}},{"base_weights":[2.495266E0,2.650367E0,2.3393235E0,3.0871367E0,2.5959008E0,2.394916E0,2.0561225E0,2.164548E0,3.2329676E0,2.4681833E0,2.8402824E0,2.256409E0,2.475511E0],"categories":[],"categories_nodes":[],"categories_segments":[],"categories_sizes":[],"default_left":[0,0,0,0,0,0,0,0,0,0,0,0,0],"id":15,"left_children":[1,3,5,7,9,11,-1,-1,-1,-1,-1,-1,-1],"loss_changes":[5.306885E0,2.0701294E0,1.4168701E0,1.0087357E0,2.682312E0,5.4504395E-1,0E0,0E0,0E0,0E0,0E0,0E0,0E0],"parents":[2147483647,0,0,1,1,2,2,3,3,4,4,5,5],"right_children":[2,4,6,8,10,12,-1,-1,-1,-1,-1,-1,-1],"split_conditions":[3.5E0,5E-1,2.5E0,1.5E0,2.5E0,2.155E1,2.0561226E-1,2.1645479E-1,3.2329676E-1,2.4681833E-1,2.8402826E-1,2.256409E-1,2.4755111E-1],"split_indices":[7,9,9,7,7,3,0,0,0,0,0,0,0],"split_type":[0,0,0,0,0,0,0,0,0,0,0,0,0],"sum_hessian":[2.47E2,1.23E2,1.24E2,1.3E1,1.1E2,1.03E2,2.1E1,2E0,1.1E1,7.3E1,3.7E1,3.9E1,6.4E1],"tree_param":{"num_deleted":"0","num_feature":"32","num_nodes":"13","size_leaf_vector":"0"}},{"base_weights":[2.2464716E0,2.1161697E0,2.4039822E0,2.079092E0,2.7591424E0,2.0995834E0,2.4566371E0,2.0244918E0,2.2968602E0,2.836454E0,2.3975453E0],"categories":[],"categories_nodes":[],"categories_segments":[],"categories_sizes":[],"default_left":[0,1,1,1,0,0,0,0,0,0,0],"id":16,"left_children":[1,3,5,7,-1,-1,9,-1,-1,-1,-1],"loss_changes":[4.517456E0,2.6225586E0,1.2193604E0,1.0268555E0,0E0,0E0,1.3795776E0,0E0,0E0,0E0,0E0],"parents":[2147483647,0,0,1,1,2,2,3,3,6,6],"right_children":[2,4,6,8,-1,-1,10,-1,-1,-1,-1],"split_conditions":[6.453346E1,5E-1,1.5E0,1.485E1,2.7591425E-1,2.0995834E-1,2.1428573E-1,2.0244919E-1,2.2968602E-1,2.836454E-1,2.3975454E-1],"split_indices":[4,26,7,3,0,0,16,0,0,0,0],"split_type":[0,0,0,0,0,0,0,0,0,0,0],"sum_hessian":[2.47E2,1.36E2,1.11E2,1.29E2,7E0,1.7E1,9.4E1,1.04E2,2.5E1,1.2E1,8.2E1],"tree_param":{"num_deleted":"0","num_feature":"32","num_nodes":"11","size_leaf_vector":"0"}},{"base_weights":[2.022428E0,1.8793821E0,2.1474884E0,1.8301704E0,2.2515802E0,2.1017635E0,2.4841707E0,1.772304E0,1.9779547E0,2.7512674E0,2.0749278E0,1.4357109E0,2.1180727E0,2.6240032E0,2.1565773E0],"categories":[],"categories_nodes":[],"categories_segments":[],"categories_sizes":[],"default_left":[0,1,1,1,1,0,0,0,0,0,0,0,0,0,0],"id":17,"left_children":[1,3,5,7,9,11,13,-1,-1,-1,-1,-1,-1,-1,-1],"loss_changes":[3.9766235E0,1.6736145E0,1.4503174E0,4.9365234E-1,5.372162E-1,9.215698E-1,7.801056E-2,0E0,0E0,0E0,0E0,0E0,0E0,0E0,0E0],"parents":[2147483647,0,0,1,1,2,2,3,3,4,4,5,5,6,6],"right_children":[2,4,6,8,10,12,14,-1,-1,-1,-1,-1,-1,-1,-1],"split_conditions":[3.5E0,2.8849998E1,7.6E1,5E-1,8.5655E1,3.6E1,3.5E0,1.772304E-1,1.9779548E-1,2.7512676E-1,2.0749278E-1,1.435711E-1,2.1180728E-1,2.6240033E-1,2.1565774E-1],"split_indices":[6,3,4,21,0,4,7,0,0,0,0,0,0,0,0],"split_type":[0,0,0,0,0,0,0,0,0,0,0,0,0,0,0],"sum_hessian":[2.47E2,1.16E2,1.31E2,1.03E2,1.3E1,1.16E2,1.5E1,7.5E1,2.8E1,3E0,1E1,3E0,1.13E2,1E1,5E0],"tree_param":{"num_deleted":"0","num_feature":"32","num_nodes":"15","size_leaf_vector":"0"}},{"base_weights":[1.8208978E0,1.9438488E0,1.6973897E0,1.8549528E0,2.1370423E0,1.6455479E0,1.9052579E0,1.6054966E0,1.9808651E0,2.2029128E0,1.53463E0,1.6184766E0,2.1161206E0,1.5375987E0,1.9702767E0],"categories":[],"categories_nodes":[],"categories_segments":[],"categories_sizes":[],"default_left":[0,0,0,1,1,1,0,0,0,0,0,0,0,0,0],"id":18,"left_children":[1,3,5,7,9,11,13,-1,-1,-1,-1,-1,-1,-1,-1],"loss_changes":[3.3859863E0,1.6778259E0,9.8831177E-1,2.3190613E0,1.1363983E0,8.953247E-1,2.3808289E-1,0E0,0E0,0E0,0E0,0E0,0E0,0E0,0E0],"parents":[2147483647,0,0,1,1,2,2,3,3,4,4,5,5,6,6],"right_children":[2,4,6,8,10,12,14,-1,-1,-1,-1,-1,-1,-1,-1],"split_conditions":[3.5E0,2.5E0,7.25E1,5E-1,5E-1,5E-1,1.67175E2,1.6054967E-1,1.9808652E-1,2.2029129E-1,1.5346299E-1,1.6184767E-1,2.1161206E-1,1.5375988E-1,1.9702767E-1],"split_indices":[7,7,4,21,19,26,1,0,0,0,0,0,0,0,0],"split_type":[0,0,0,0,0,0,0,0,0,0,0,0,0,0,0],"sum_hessian":[2.47E2,1.23E2,1.24E2,8.5E1,3.8E1,1E2,2.4E1,2.9E1,5.6E1,3.4E1,4E0,9.5E1,5E0,4E0,2E1],"tree_param":{"num_deleted":"0","num_feature":"32","num_nodes":"15","size_leaf_vector":"0"}},{"base_weights":[1.6394256E0,1.5349747E0,1.7658148E0,1.5041693E0,2.0720842E0,2.0237505E0,1.7201855E0,1.5412922E0,1.294691E0,1.4038146E0,2.1010194E0,1.7993575E0,1.6019355E0],"categories":[],"categories_nodes":[],"categories_segments":[],"categories_sizes":[],"default_left":[0,1,0,0,0,0,1,0,0,0,0,0,0],"id":19,"left_children":[1,3,5,7,-1,9,11,-1,-1,-1,-1,-1,-1],"loss_changes":[2.9580078E0,1.904419E0,9.219971E-1,7.76062E-1,0E0,4.4122314E-1,5.680542E-1,0E0,0E0,0E0,0E0,0E0,0E0],"parents":[2147483647,0,0,1,1,2,2,3,3,5,5,6,6],"right_children":[2,4,6,8,-1,10,12,-1,-1,-1,-1,-1,-1],"split_conditions":[6.453346E1,5E-1,5E-1,2.5E0,2.0720842E-1,1.5E0,5.5E0,1.5412922E-1,1.294691E-1,1.4038146E-1,2.1010195E-1,1.7993575E-1,1.6019355E-1],"split_indices":[4,26,9,9,0,7,8,0,0,0,0,0,0],"split_type":[0,0,0,0,0,0,0,0,0,0,0,0,0],"sum_hessian":[2.47E2,1.36E2,1.11E2,1.29E2,7E0,1.6E1,9.5E1,1.09E2,2E1,2E0,1.4E1,5.6E1,3.9E1],"tree_param":{"num_deleted":"0","num_feature":"32","num_nodes":"13","size_leaf_vector":"0"}},{"base_weights":[1.4759856E0,1.4175645E0,1.6721832E0,1.3836644E0,1.776829E0,1.3930064E0,1.779852E0,1.3623338E0,1.8677939E0,2.0562983E0,1.538157E0,1.4268085E0,7.932691E-1,1.9029378E0,1.6025851E0],"categories":[],"categories_nodes":[],"categories_segments":[],"categories_sizes":[],"default_left":[1,1,0,1,1,1,0,0,0,0,0,0,0,0,0],"id":20,"left_children":[1,3,5,7,9,11,13,-1,-1,-1,-1,-1,-1,-1,-1],"loss_changes":[2.564392E0,2.0499573E0,1.4066467E0,1.5214539E0,7.216606E-1,1.9099998E-1,5.3491974E-1,0E0,0E0,0E0,0E0,0E0,0E0,0E0,0E0],"parents":[2147483647,0,0,1,1,2,2,3,3,4,4,5,5,6,6],"right_children":[2,4,6,8,10,12,14,-1,-1,-1,-1,-1,-1,-1,-1],"split_conditions":[6.55E1,2.725E1,3.63E1,5E-1,5.5E0,5E-1,3.5E0,1.3623337E-1,1.867794E-1,2.0562983E-1,1.538157E-1,1.4268085E-1,7.932691E-2,1.9029377E-1,1.6025852E-1],"split_indices":[4,3,3,26,8,24,7,0,0,0,0,0,0,0,0],"split_type":[0,0,0,0,0,0,0,0,0,0,0,0,0,0,0],"sum_hessian":[2.47E2,1.91E2,5.6E1,1.75E2,1.6E1,1.6E1,4E1,1.68E2,7E0,7E0,9E0,1.5E1,1E0,2.3E1,1.7E1],"tree_param":{"num_deleted":"0","num_feature":"32","num_nodes":"15","size_leaf_vector":"0"}},{"base_weights":[1.3289235E0,1.2912831E0,1.6061215E0,1.1312195E0,1.3432045E0,2.1659544E0,1.556444E0,9.7507477E-1,1.1779926E0,1.162435E0,1.3827038E0,1.668606E0,1.3501453E0],"categories":[],"categories_nodes":[],"categories_segments":[],"categories_sizes":[],"default_left":[1,0,0,1,0,0,1,0,0,0,0,0,0],"id":21,"left_children":[1,3,5,7,9,-1,11,-1,-1,-1,-1,-1,-1],"loss_changes":[2.3418274E0,1.6359253E0,4.349594E-1,2.5871277E-1,9.8553467E-1,0E0,3.7158966E-1,0E0,0E0,0E0,0E0,0E0,0E0],"parents":[2147483647,0,0,1,1,2,2,3,3,4,4,6,6],"right_children":[2,4,6,8,10,-1,12,-1,-1,-1,-1,-1,-1],"split_conditions":[2.5E0,4.55E1,6.9089976E-5,2.5E0,1.81E1,2.1659544E-1,5E-1,9.750748E-2,1.1779926E-1,1.16243504E-1,1.3827038E-1,1.6686061E-1,1.3501453E-1],"split_indices":[5,4,14,7,3,0,18,0,0,0,0,0,0],"split_type":[0,0,0,0,0,0,0,0,0,0,0,0,0],"sum_hessian":[2.47E2,2.18E2,2.9E1,5.4E1,1.64E2,2E0,2.7E1,1.3E1,4.1E1,3E1,1.34E2,1.7E1,1E1],"tree_param":{"num_deleted":"0","num_feature":"32","num_nodes":"13","size_leaf_vector":"0"}},{"base_weights":[1.1964554E0,1.2906318E0,1.1019932E0,1.2094803E0,1.4682416E0,1.1316943E0,9.089407E-1,1.0155376E0,1.3077475E0,1.6400207E0,1.2688168E0,1.0942574E0,1.2556713E0,8.726729E-1,1.3480475E0],"categories":[],"categories_nodes":[],"categories_segments":[],"categories_sizes":[],"default_left":[0,0,1,1,1,0,1,0,0,0,0,0,0,0,0],"id":22,"left_children":[1,3,5,7,9,11,13,-1,-1,-1,-1,-1,-1,-1,-1],"loss_changes":[2.032074E0,1.5699158E0,5.883026E-1,1.4658127E0,1.068016E0,3.3618164E-1,1.324768E-1,0E0,0E0,0E0,0E0,0E0,0E0,0E0,0E0],"parents":[2147483647,0,0,1,1,2,2,3,3,4,4,5,5,6,6],"right_children":[2,4,6,8,10,12,14,-1,-1,-1,-1,-1,-1,-1,-1],"split_conditions":[3.5E0,2.5E0,2.5E0,5E-1,1.5E0,7.25E1,4.75E0,1.0155376E-1,1.3077475E-1,1.6400208E-1,1.2688169E-1,1.0942574E-1,1.2556712E-1,8.7267295E-2,1.3480476E-1],"split_indices":[7,7,9,21,10,4,3,0,0,0,0,0,0,0,0],"split_type":[0,0,0,0,0,0,0,0,0,0,0,0,0,0,0],"sum_hessian":[2.47E2,1.23E2,1.24E2,8.5E1,3.8E1,1.07E2,1.7E1,2.9E1,5.6E1,2E1,1.8E1,8.3E1,2.4E1,1.6E1,1E0],"tree_param":{"num_deleted":"0","num_feature":"32","num_nodes":"15","size_leaf_vector":"0"}},{"base_weights":[1.077235E0,1.0452014E0,1.3132765E0,1.0289834E0,1.4517316E0,1.2571243E0,1.7404526E0,9.9381316E-1,1.2356691E0,1.2304316E0,1.6351844E0,1.164758E0,1.3909248E0,1.1995716E0,1.9361306E0],"categories":[],"categories_nodes":[],"categories_segments":[],"categories_sizes":[],"default_left":[1,1,0,1,0,1,0,0,0,0,0,0,0,0,0],"id":23,"left_children":[1,3,5,7,9,11,13,-1,-1,-1,-1,-1,-1,-1,-1],"loss_changes":[1.7075195E0,1.2637787E0,4.4924927E-1,1.3821564E0,9.89933E-2,1.349945E-1,6.4489365E-2,0E0,0E0,0E0,0E0,0E0,0E0,0E0,0E0],"parents":[2147483647,0,0,1,1,2,2,3,3,4,4,5,5,6,6],"right_children":[2,4,6,8,10,12,14,-1,-1,-1,-1,-1,-1,-1,-1],"split_conditions":[2.5E0,5E-1,8.1E1,2.725E1,1.0000001E1,4E0,1.301E2,9.938132E-2,1.2356692E-1,1.2304316E-1,1.6351844E-1,1.164758E-1,1.3909249E-1,1.19957164E-1,1.9361307E-1],"split_indices":[5,26,4,3,10,10,0,0,0,0,0,0,0,0,0],"split_type":[0,0,0,0,0,0,0,0,0,0,0,0,0,0,0],"sum_hessian":[2.47E2,2.18E2,2.9E1,2.1E2,8E0,2.6E1,3E0,1.8E2,3E1,4E0,4E0,1.6E1,1E1,1E0,2E0],"tree_param":{"num_deleted":"0","num_feature":"32","num_nodes":"15","size_leaf_vector":"0"}},{"base_weights":[9.6997625E-1,1.0508054E0,8.8893616E-1,9.7943187E-1,1.2072048E0,9.185695E-1,7.394532E-1,8.116245E-1,1.0645522E0,1.295398E0,8.6333644E-1,9.331939E-1,6.6907996E-1,7.136217E-1,1.1351509E0],"categories":[],"categories_nodes":[],"categories_segments":[],"categories_sizes":[],"default_left":[0,0,0,1,1,1,1,0,0,0,0,0,0,0,0],"id":24,"left_children":[1,3,5,7,9,11,13,-1,-1,-1,-1,-1,-1,-1,-1],"loss_changes":[1.5058289E0,1.2340393E0,4.6522522E-1,1.1103897E0,1.0220299E0,2.9771423E-1,1.16176605E-1,0E0,0E0,0E0,0E0,0E0,0E0,0E0,0E0],"parents":[2147483647,0,0,1,1,2,2,3,3,4,4,5,5,6,6],"right_children":[2,4,6,8,10,12,14,-1,-1,-1,-1,-1,-1,-1,-1],"split_conditions":[3.5E0,2.5E0,2.5E0,5E-1,1.0107501E-4,5E-1,4.75E0,8.116245E-2,1.0645522E-1,1.295398E-1,8.633365E-2,9.331939E-2,6.6907994E-2,7.136217E-2,1.13515094E-1],"split_indices":[7,7,9,21,14,24,3,0,0,0,0,0,0,0,0],"split_type":[0,0,0,0,0,0,0,0,0,0,0,0,0,0,0],"sum_hessian":[2.47E2,1.23E2,1.24E2,8.5E1,3.8E1,1.03E2,2.1E1,2.9E1,5.6E1,3E1,8E0,9.7E1,6E0,2E1,1E0],"tree_param":{"num_deleted":"0","num_feature":"32","num_nodes":"15","size_leaf_vector":"0"}},{"base_weights":[8.733102E-1,8.3010817E-1,1.0187395E0,8.050724E-1,1.0966141E0,7.8593904E-1,1.109418E0,7.883092E-1,1.1892111E0,1.3557961E0,8.812456E-1,9.176476E-1,6.432929E-1,1.2060822E0,9.7176397E-1],"categories":[],"categories_nodes":[],"categories_segments":[],"categories_sizes":[],"default_left":[1,1,0,1,1,0,1,0,0,0,0,0,0,0,0],"id":25,"left_children":[1,3,5,7,9,11,13,-1,-1,-1,-1,-1,-1,-1,-1],"loss_changes":[1.4494324E0,1.1677551E0,1.078125E0,1.0140152E0,7.568474E-1,2.2784233E-1,3.945961E-1,0E0,0E0,0E0,0E0,0E0,0E0,0E0,0E0],"parents":[2147483647,0,0,1,1,2,2,3,3,4,4,5,5,6,6],"right_children":[2,4,6,8,10,12,14,-1,-1,-1,-1,-1,-1,-1,-1],"split_conditions":[6.55E1,2.725E1,3.63E1,5E-1,5.5E0,5.918048E-5,3.1439999E1,7.883092E-2,1.18921116E-1,1.3557962E-1,8.8124566E-2,9.176476E-2,6.432929E-2,1.20608225E-1,9.7176395E-2],"split_indices":[4,3,3,26,8,14,2,0,0,0,0,0,0,0,0],"split_type":[0,0,0,0,0,0,0,0,0,0,0,0,0,0,0],"sum_hessian":[2.47E2,1.91E2,5.6E1,1.75E2,1.6E1,1.6E1,4E1,1.68E2,7E0,7E0,9E0,8E0,8E0,2.3E1,1.7E1],"tree_param":{"num_deleted":"0","num_feature":"32","num_nodes":"15","size_leaf_vector":"0"}},{"base_weights":[7.863295E-1,7.5902826E-1,9.8790234E-1,6.410907E-1,7.964394E-1,9.39869E-1,1.3572186E0,6.1481076E-1,1.2452785E0,7.6029205E-1,9.37993E-1,1.1181073E0,8.8060325E-1,9.054004E-1,1.5244939E0],"categories":[],"categories_nodes":[],"categories_segments":[],"categories_sizes":[],"default_left":[1,0,0,1,1,0,0,0,0,0,0,0,0,0,0],"id":26,"left_children":[1,3,5,7,9,11,13,-1,-1,-1,-1,-1,-1,-1,-1],"loss_changes":[1.2673798E0,8.968582E-1,3.6568832E-1,7.4796295E-1,7.564926E-1,1.5725708E-1,7.196474E-2,0E0,0E0,0E0,0E0,0E0,0E0,0E0,0E0],"parents":[2147483647,0,0,1,1,2,2,3,3,4,4,5,5,6,6],"right_children":[2,4,6,8,10,12,14,-1,-1,-1,-1,-1,-1,-1,-1],"split_conditions":[2.5E0,7.125E1,8.1E1,5E-1,6.429367E-5,2.405E1,1.301E2,6.1481077E-2,1.2452785E-1,7.6029204E-2,9.37993E-2,1.1181074E-1,8.806033E-2,9.0540044E-2,1.524494E-1],"split_indices":[5,0,4,26,14,2,0,0,0,0,0,0,0,0,0],"split_type":[0,0,0,0,0,0,0,0,0,0,0,0,0,0,0],"sum_hessian":[2.47E2,2.18E2,2.9E1,5.3E1,1.65E2,2.6E1,3E0,5.1E1,2E0,1.32E2,3.3E1,6E0,2E1,1E0,2E0],"tree_param":{"num_deleted":"0","num_feature":"32","num_nodes":"15","size_leaf_vector":"0"}},{"base_weights":[7.0804816E-1,6.8821985E-1,9.545602E-1,6.7644453E-1,9.9991095E-1,1.0418091E0,7.097725E-1,6.3372356E-1,7.693565E-1,8.291515E-1,1.1438433E0,1.1574149E0,8.3581144E-1,3.6439916E-1,7.8268313E-1],"categories":[],"categories_nodes":[],"categories_segments":[],"categories_sizes":[],"default_left":[1,1,1,1,0,0,0,0,0,0,0,0,0,0,0],"id":27,"left_children":[1,3,5,7,9,11,13,-1,-1,-1,-1,-1,-1,-1,-1],"loss_changes":[1.1256943E0,7.5644684E-1,2.951107E-1,8.1481934E-1,8.4508896E-2,1.953001E-1,8.8433504E-2,0E0,0E0,0E0,0E0,0E0,0E0,0E0,0E0],"parents":[2147483647,0,0,1,1,2,2,3,3,4,4,5,5,6,6],"right_children":[2,4,6,8,10,12,14,-1,-1,-1,-1,-1,-1,-1,-1],"split_conditions":[7.6E1,5E-1,5.505554E-5,1.81E1,1.0000001E1,1.2000001E1,8.295E1,6.337236E-2,7.693565E-2,8.291515E-2,1.1438433E-1,1.1574149E-1,8.358114E-2,3.6439918E-2,7.826831E-2],"split_indices":[4,26,14,3,10,10,0,0,0,0,0,0,0,0,0],"split_type":[0,0,0,0,0,0,0,0,0,0,0,0,0,0,0],"sum_hessian":[2.47E2,2.29E2,1.8E1,2.21E2,8E0,1.3E1,5E0,1.52E2,6.9E1,4E0,4E0,8E0,5E0,1E0,4E0],"tree_param":{"num_deleted":"0","num_feature":"32","num_nodes":"15","size_leaf_vector":"0"}},{"base_weights":[6.375352E-1,6.132653E-1,8.169001E-1,6.0164994E-1,9.4857126E-1,1.2198871E0,7.822889E-1,5.949745E-1,1.2329203E0,1.0018535E0,5.577722E-1,6.6797745E-1,9.1765034E-1],"categories":[],"categories_nodes":[],"categories_segments":[],"categories_sizes":[],"default_left":[1,1,0,1,0,0,1,0,0,0,0,0,0],"id":28,"left_children":[1,3,5,7,9,-1,11,-1,-1,-1,-1,-1,-1],"loss_changes":[1.0112686E0,7.7685547E-1,2.9043198E-1,7.979431E-1,7.636356E-2,0E0,3.4217453E-1,0E0,0E0,0E0,0E0,0E0,0E0],"parents":[2147483647,0,0,1,1,2,2,3,3,4,4,6,6],"right_children":[2,4,6,8,10,-1,12,-1,-1,-1,-1,-1,-1],"split_conditions":[2.5E0,5E-1,6.9089976E-5,4.634233E-4,1.2000001E1,1.21988714E-1,4E0,5.9497453E-2,1.2329203E-1,1.0018535E-1,5.5777222E-2,6.679775E-2,9.176504E-2],"split_indices":[5,22,14,14,8,0,10,0,0,0,0,0,0],"split_type":[0,0,0,0,0,0,0,0,0,0,0,0,0],"sum_hessian":[2.47E2,2.18E2,2.9E1,2.11E2,7E0,2E0,2.7E1,2.09E2,2E0,6E0,1E0,1.5E1,1.2E1],"tree_param":{"num_deleted":"0","num_feature":"32","num_nodes":"13","size_leaf_vector":"0"}},{"base_weights":[5.740562E-1,5.3922164E-1,6.8884873E-1,5.1973295E-1,7.459953E-1,4.9643227E-1,7.623042E-1,4.3761712E-1,5.706013E-1,9.79448E-1,5.545542E-1,6.171766E-1,3.6832458E-1,6.6880536E-1,8.561647E-1],"categories":[],"categories_nodes":[],"categories_segments":[],"categories_sizes":[],"default_left":[0,1,0,1,1,0,1,0,0,0,0,0,0,0,0],"id":29,"left_children":[1,3,5,7,9,11,13,-1,-1,-1,-1,-1,-1,-1,-1],"loss_changes":[9.3865967E-1,7.146225E-1,7.566223E-1,6.9218445E-1,6.498928E-1,2.1645212E-1,2.8817558E-1,0E0,0E0,0E0,0E0,0E0,0E0,0E0,0E0],"parents":[2147483647,0,0,1,1,2,2,3,3,4,4,5,5,6,6],"right_children":[2,4,6,8,10,12,14,-1,-1,-1,-1,-1,-1,-1,-1],"split_conditions":[6.55E1,2.725E1,3.63E1,2.5E0,5.5E0,5.918048E-5,5E-1,4.376171E-2,5.706013E-2,9.79448E-2,5.5455424E-2,6.171766E-2,3.683246E-2,6.688054E-2,8.561647E-2],"split_indices":[4,3,3,7,8,14,21,0,0,0,0,0,0,0,0],"split_type":[0,0,0,0,0,0,0,0,0,0,0,0,0,0,0],"sum_hessian":[2.47E2,1.9E2,5.7E1,1.74E2,1.6E1,1.6E1,4.1E1,6.7E1,1.07E2,7E0,9E0,8E0,8E0,2.1E1,2E1],"tree_param":{"num_deleted":"0","num_feature":"32","num_nodes":"15","size_leaf_vector":"0"}},{"base_weights":[5.168835E-1,5.7701766E-1,4.5673683E-1,5.1750857E-1,7.081601E-1,4.2607436E-1,5.59619E-1,1.5064743E-1,5.450193E-1,8.5348797E-1,5.423089E-1,4.1211239E-1,6.651587E-1,4.5797443E-1,6.319132E-1],"categories":[],"categories_nodes":[],"categories_segments":[],"categories_sizes":[],"default_left":[0,0,1,0,1,1,0,0,0,0,0,0,0,0,0],"id":30,"left_children":[1,3,5,7,9,11,13,-1,-1,-1,-1,-1,-1,-1,-1],"loss_changes":[8.5704803E-1,9.1178894E-1,3.577881E-1,8.4371567E-1,8.580723E-1,2.8260422E-1,1.6664791E-1,0E0,0E0,0E0,0E0,0E0,0E0,0E0,0E0],"parents":[2147483647,0,0,1,1,2,2,3,3,4,4,5,5,6,6],"right_children":[2,4,6,8,10,12,14,-1,-1,-1,-1,-1,-1,-1,-1],"split_conditions":[3.5E0,2.5E0,5E-1,1.11765E2,1.5E0,5E-1,1.23205E2,1.5064743E-2,5.4501932E-2,8.53488E-2,5.4230895E-2,4.121124E-2,6.651587E-2,4.5797445E-2,6.319132E-2],"split_indices":[7,7,21,1,10,26,1,0,0,0,0,0,0,0,0],"split_type":[0,0,0,0,0,0,0,0,0,0,0,0,0,0,0],"sum_hessian":[2.47E2,1.23E2,1.24E2,8.5E1,3.8E1,9.6E1,2.8E1,6E0,7.9E1,2E1,1.8E1,9.1E1,5E0,1.2E1,1.6E1],"tree_param":{"num_deleted":"0","num_feature":"32","num_nodes":"15","size_leaf_vector":"0"}},{"base_weights":[4.65396E-1,4.348066E-1,5.662455E-1,2.5533536E-1,4.5452848E-1,3.9224204E-1,6.327864E-1,1.8583205E-1,3.4619382E-1,2.9128066E-1,4.746638E-1,4.9974138E-1,2.7866566E-1,4.345526E-1,6.719119E-1],"categories":[],"categories_nodes":[],"categories_segments":[],"categories_sizes":[],"default_left":[0,1,0,1,0,0,1,0,0,0,0,0,0,0,0],"id":31,"left_children":[1,3,5,7,9,11,13,-1,-1,-1,-1,-1,-1,-1,-1],"loss_changes":[7.276535E-1,6.5415573E-1,6.2605476E-1,1.0886204E-1,5.409279E-1,1.7486095E-1,2.7850914E-1,0E0,0E0,0E0,0E0,0E0,0E0,0E0,0E0],"parents":[2147483647,0,0,1,1,2,2,3,3,4,4,5,5,6,6],"right_children":[2,4,6,8,10,12,14,-1,-1,-1,-1,-1,-1,-1,-1],"split_conditions":[6.55E1,5E-1,3.63E1,5.1754997E1,5.5697063E-5,5.918048E-5,1.5E0,1.8583206E-2,3.4619384E-2,2.9128065E-2,4.746638E-2,4.997414E-2,2.7866567E-2,4.345526E-2,6.719119E-2],"split_indices":[4,11,3,0,14,14,7,0,0,0,0,0,0,0,0],"split_type":[0,0,0,0,0,0,0,0,0,0,0,0,0,0,0],"sum_hessian":[2.47E2,1.9E2,5.7E1,1.9E1,1.71E2,1.6E1,4.1E1,1.1E1,8E0,1.9E1,1.52E2,8E0,8E0,7E0,3.4E1],"tree_param":{"num_deleted":"0","num_feature":"32","num_nodes":"15","size_leaf_vector":"0"}},{"base_weights":[4.190136E-1,2.967236E-1,4.410478E-1,1.4039816E-1,3.5149992E-1,4.07366E-1,5.164474E-1,1.9042842E-1,-5.4499418E-2,3.9757338E-1,1.3396136E-1,3.9941362E-1,9.25106E-1,5.6626433E-1,3.3506647E-1],"categories":[],"categories_nodes":[],"categories_segments":[],"categories_sizes":[],"default_left":[0,1,0,0,1,1,0,0,0,0,0,0,0,0,0],"id":32,"left_children":[1,3,5,7,9,11,13,-1,-1,-1,-1,-1,-1,-1,-1],"loss_changes":[6.4536285E-1,3.163936E-1,5.007477E-1,1.0087992E-1,2.7099776E-1,5.4722404E-1,5.512104E-1,0E0,0E0,0E0,0E0,0E0,0E0,0E0,0E0],"parents":[2147483647,0,0,1,1,2,2,3,3,4,4,5,5,6,6],"right_children":[2,4,6,8,10,12,14,-1,-1,-1,-1,-1,-1,-1,-1],"split_conditions":[6.48E1,2.5E0,2.5E0,4.000001E0,5E-1,4.634233E-4,5.3333336E-1,1.9042842E-2,-5.449942E-3,3.9757337E-2,1.3396136E-2,3.9941363E-2,9.25106E-2,5.6626435E-2,3.3506647E-2],"split_indices":[0,7,5,5,20,14,16,0,0,0,0,0,0,0,0],"split_type":[0,0,0,0,0,0,0,0,0,0,0,0,0,0,0],"sum_hessian":[2.47E2,3.8E1,2.09E2,1E1,2.8E1,1.45E2,6.4E1,8E0,2E0,2.3E1,5E0,1.43E2,2E0,5E1,1.4E1],"tree_param":{"num_deleted":"0","num_feature":"32","num_nodes":"15","size_leaf_vector":"0"}},{"base_weights":[3.772493E-1,3.6759138E-1,6.564448E-1,3.3477318E-1,4.4770166E-1,6.969197E-1,3.2642993E-1,2.8013855E-1,4.1031206E-1,5.1248264E-1,2.7491117E-1,6.229951E-1,8.3850235E-1],"categories":[],"categories_nodes":[],"categories_segments":[],"categories_sizes":[],"default_left":[1,0,0,1,0,0,0,0,0,0,0,1,1],"id":33,"left_children":[1,3,5,7,9,-1,-1,-1,-1,-1,-1,-1,-1],"loss_changes":[6.3191986E-1,6.058006E-1,7.5211525E-2,6.836109E-1,7.515116E-1,7.4584484E-3,0E0,0E0,0E0,0E0,0E0,0E0,0E0],"parents":[2147483647,0,0,1,1,2,2,3,3,4,4,5,5],"right_children":[2,4,6,8,10,-1,-1,-1,-1,-1,-1,-1,-1],"split_conditions":[5E-1,2.5E0,1.2000001E1,5E-1,5.3333336E-1,6.969197E-2,3.2642994E-2,2.8013855E-2,4.1031208E-2,5.1248264E-2,2.7491117E-2,6.229951E-2,8.3850235E-2],"split_indices":[22,5,8,21,16,3,0,0,0,0,0,2147483647,2147483647],"split_type":[0,0,0,0,0,0,0,0,0,0,0,0,0],"sum_hessian":[2.47E2,2.39E2,8E0,1.7E2,6.9E1,7E0,1E0,9.9E1,7.1E1,5E1,1.9E1,5E0,2E0],"tree_param":{"num_deleted":"2","num_feature":"32","num_nodes":"13","size_leaf_vector":"0"}},{"base_weights":[3.396457E-1,3.2554638E-1,5.057239E-1,3.1590477E-1,5.8228296E-1,8.2810503E-1,4.62591E-1,3.0723518E-1,5.702559E-1,4.5704266E-1,6.908822E-1,2.2973745E-1,5.097957E-1],"categories":[],"categories_nodes":[],"categories_segments":[],"categories_sizes":[],"default_left":[0,1,0,1,0,0,0,0,0,0,0,0,0],"id":34,"left_children":[1,3,5,7,9,-1,11,-1,-1,-1,-1,-1,-1],"loss_changes":[5.538311E-1,5.372505E-1,2.143755E-1,4.5904922E-1,6.7112684E-2,0E0,1.6885233E-1,0E0,0E0,0E0,0E0,0E0,0E0],"parents":[2147483647,0,0,1,1,2,2,3,3,4,4,6,6],"right_children":[2,4,6,8,10,-1,12,-1,-1,-1,-1,-1,-1],"split_conditions":[7.6E1,5E-1,5.505554E-5,5E-1,1.0000001E1,8.2810506E-2,7.1263465E-5,3.0723518E-2,5.702559E-2,4.5704268E-2,6.908822E-2,2.2973744E-2,5.0979573E-2],"split_indices":[4,26,14,22,10,0,14,0,0,0,0,0,0],"split_type":[0,0,0,0,0,0,0,0,0,0,0,0,0],"sum_hessian":[2.47E2,2.28E2,1.9E1,2.2E2,8E0,2E0,1.7E1,2.13E2,7E0,4E0,4E0,3E0,1.4E1],"tree_param":{"num_deleted":"0","num_feature":"32","num_nodes":"13","size_leaf_vector":"0"}},{"base_weights":[3.0585077E-1,3.513675E-1,2.6037383E-1,3.0487698E-1,4.5402378E-1,2.3426875E-1,3.483688E-1,2.4531798E-1,4.183056E-1,5.091489E-1,8.538756E-2,2.2252831E-1,4.374312E-1,3.191078E-1,5.708249E-1],"categories":[],"categories_nodes":[],"categories_segments":[],"categories_sizes":[],"default_left":[0,0,1,1,1,1,1,0,0,0,0,0,0,0,0],"id":35,"left_children":[1,3,5,7,9,11,13,-1,-1,-1,-1,-1,-1,-1,-1],"loss_changes":[4.9622154E-1,5.6606865E-1,2.710848E-1,5.58012E-1,7.6394224E-1,2.1288586E-1,1.5579653E-1,0E0,0E0,0E0,0E0,0E0,0E0,0E0,0E0],"parents":[2147483647,0,0,1,1,2,2,3,3,4,4,5,5,6,6],"right_children":[2,4,6,8,10,12,14,-1,-1,-1,-1,-1,-1,-1,-1],"split_conditions":[3.5E0,2.5E0,5E-1,6.9301146E-5,1.0349917E-4,5E-1,3.0952382E-1,2.4531798E-2,4.1830562E-2,5.091489E-2,8.538756E-3,2.2252832E-2,4.374312E-2,3.191078E-2,5.7082493E-2],"split_indices":[7,7,21,14,14,26,16,0,0,0,0,0,0,0,0],"split_type":[0,0,0,0,0,0,0,0,0,0,0,0,0,0,0],"sum_hessian":[2.47E2,1.23E2,1.24E2,8.5E1,3.8E1,9.6E1,2.8E1,5.6E1,2.9E1,3.3E1,5E0,9.1E1,5E0,2.5E1,3E0],"tree_param":{"num_deleted":"0","num_feature":"32","num_nodes":"15","size_leaf_vector":"0"}},{"base_weights":[2.7540764E-1,2.5216916E-1,3.5765922E-1,1.0657277E-1,2.6793984E-1,2.0754102E-1,4.1446277E-1,1.7101686E-1,1.5710223E-2,2.522409E-1,4.1981623E-1,3.132165E-1,1.111151E-1,4.893659E-1,3.1464958E-1],"categories":[],"categories_nodes":[],"categories_segments":[],"categories_sizes":[],"default_left":[0,1,0,0,1,0,1,0,0,0,0,0,0,0,0],"id":36,"left_children":[1,3,5,7,9,11,13,-1,-1,-1,-1,-1,-1,-1,-1],"loss_changes":[4.5719147E-1,4.367857E-1,4.465022E-1,1.09705105E-1,3.9779758E-1,1.4614326E-1,2.688861E-1,0E0,0E0,0E0,0E0,0E0,0E0,0E0,0E0],"parents":[2147483647,0,0,1,1,2,2,3,3,4,4,5,5,6,6],"right_children":[2,4,6,8,10,12,14,-1,-1,-1,-1,-1,-1,-1,-1],"split_conditions":[7.25E1,5E-1,3.63E1,1.1176E2,2.725E1,5.918048E-5,3.1439999E1,1.7101686E-2,1.5710223E-3,2.522409E-2,4.1981623E-2,3.1321652E-2,1.111151E-2,4.893659E-2,3.146496E-2],"split_indices":[4,11,3,1,3,14,2,0,0,0,0,0,0,0,0],"split_type":[0,0,0,0,0,0,0,0,0,0,0,0,0,0,0],"sum_hessian":[2.47E2,1.93E2,5.4E1,1.9E1,1.74E2,1.5E1,3.9E1,1.1E1,8E0,1.58E2,1.6E1,7E0,8E0,2.2E1,1.7E1],"tree_param":{"num_deleted":"0","num_feature":"32","num_nodes":"15","size_leaf_vector":"0"}},{"base_weights":[2.4797994E-1,1.5360011E-1,2.6501042E-1,1.4700959E-2,2.0262223E-1,2.7812952E-1,1.3977052E-1,5.900845E-2,-1.521375E-1,2.4165761E-1,1.9881163E-2,1.8718046E-1,2.986E-1,-3.8967413E-1,1.7005387E-1],"categories":[],"categories_nodes":[],"categories_segments":[],"categories_sizes":[],"default_left":[0,1,1,0,1,1,0,0,0,0,0,0,0,0,0],"id":37,"left_children":[1,3,5,7,9,11,13,-1,-1,-1,-1,-1,-1,-1,-1],"loss_changes":[3.8891506E-1,2.5695676E-1,3.3549213E-1,7.46276E-2,1.9735181E-1,3.4161282E-1,3.267009E-1,0E0,0E0,0E0,0E0,0E0,0E0,0E0,0E0],"parents":[2147483647,0,0,1,1,2,2,3,3,4,4,5,5,6,6],"right_children":[2,4,6,8,10,12,14,-1,-1,-1,-1,-1,-1,-1,-1],"split_conditions":[6.48E1,2.5E0,5E-1,4.000001E0,5E-1,1.5E0,7.1000004E0,5.900845E-3,-1.521375E-2,2.4165763E-2,1.9881164E-3,1.8718047E-2,2.986E-2,-3.8967412E-2,1.7005388E-2],"split_indices":[0,7,19,5,20,7,2,0,0,0,0,0,0,0,0],"split_type":[0,0,0,0,0,0,0,0,0,0,0,0,0,0,0],"sum_hessian":[2.47E2,3.8E1,2.09E2,1E1,2.8E1,1.89E2,2E1,8E0,2E0,2.3E1,5E0,3.5E1,1.54E2,1E0,1.9E1],"tree_param":{"num_deleted":"0","num_feature":"32","num_nodes":"15","size_leaf_vector":"0"}},{"base_weights":[2.23212E-1,2.158284E-1,4.371747E-1,3.802466E-1,2.0538914E-1,4.7432527E-1,1.4855058E-1,3.543819E-2,4.3612042E-1,1.9701613E-1,4.2603603E-1,5.7186687E-1,3.8656637E-1],"categories":[],"categories_nodes":[],"categories_segments":[],"categories_sizes":[],"default_left":[1,0,0,0,1,1,0,0,0,0,0,0,0],"id":38,"left_children":[1,3,5,7,9,11,-1,-1,-1,-1,-1,-1,-1],"loss_changes":[3.744068E-1,3.967266E-1,7.357788E-2,2.653861E-1,4.012432E-1,2.9086232E-2,0E0,0E0,0E0,0E0,0E0,0E0,0E0],"parents":[2147483647,0,0,1,1,2,2,3,3,4,4,5,5],"right_children":[2,4,6,8,10,12,-1,-1,-1,-1,-1,-1,-1],"split_conditions":[5E-1,2.1428573E-1,1.2000001E1,1.5E0,5E-1,6.1559775E-5,1.4855059E-2,3.543819E-3,4.3612044E-2,1.9701613E-2,4.2603604E-2,5.718669E-2,3.8656637E-2],"split_indices":[22,16,8,7,26,14,0,0,0,0,0,0,0],"split_type":[0,0,0,0,0,0,0,0,0,0,0,0,0],"sum_hessian":[2.47E2,2.39E2,8E0,1.4E1,2.25E2,7E0,1E0,2E0,1.2E1,2.17E2,8E0,3E0,4E0],"tree_param":{"num_deleted":"0","num_feature":"32","num_nodes":"13","size_leaf_vector":"0"}},{"base_weights":[2.0100386E-1,8.114766E-2,2.132242E-1,4.5794554E-2,2.4142317E-1,3.9461705E-1,2.036288E-1,1.7749885E-1,9.068258E-3,1.1798027E-2,3.118894E-1,3.2063093E-2,4.72848E-1,1.9775973E-1,4.9554506E-1],"categories":[],"categories_nodes":[],"categories_segments":[],"categories_sizes":[],"default_left":[1,0,0,0,0,0,1,0,0,0,0,0,0,0,0],"id":39,"left_children":[1,3,5,7,9,11,13,-1,-1,-1,-1,-1,-1,-1,-1],"loss_changes":[3.5724926E-1,1.2691233E-1,3.760357E-1,9.0360284E-2,6.273654E-2,3.0826354E-1,3.4836578E-1,0E0,0E0,0E0,0E0,0E0,0E0,0E0,0E0],"parents":[2147483647,0,0,1,1,2,2,3,3,4,4,5,5,6,6],"right_children":[2,4,6,8,10,12,14,-1,-1,-1,-1,-1,-1,-1,-1],"split_conditions":[5E-1,8.000001E0,2.1428573E-1,4.5E0,5.7850002E1,1.5E0,4.634233E-4,1.7749885E-2,9.068258E-4,1.1798027E-3,3.118894E-2,3.2063094E-3,4.72848E-2,1.9775974E-2,4.955451E-2],"split_indices":[11,7,16,8,0,7,14,0,0,0,0,0,0,0,0],"split_type":[0,0,0,0,0,0,0,0,0,0,0,0,0,0,0],"sum_hessian":[2.47E2,2.3E1,2.24E2,1.9E1,4E0,1.1E1,2.13E2,4E0,1.5E1,1E0,3E0,2E0,9E0,2.09E2,4E0],"tree_param":{"num_deleted":"0","num_feature":"32","num_nodes":"15","size_leaf_vector":"0"}},{"base_weights":[1.8100062E-1,1.617965E-1,2.4902678E-1,1.5278795E-1,3.6442629E-1,1.1975252E-1,2.9805845E-1,1.4696647E-1,4.8659885E-1,2.966306E-1,5.392412E-1,1.3371755E-2,2.1028687E-1,7.011675E-2,3.2355005E-1],"categories":[],"categories_nodes":[],"categories_segments":[],"categories_sizes":[],"default_left":[0,1,0,1,1,1,0,0,0,0,0,0,0,0,0],"id":40,"left_children":[1,3,5,7,9,11,13,-1,-1,-1,-1,-1,-1,-1,-1],"loss_changes":[3.146696E-1,3.417449E-1,3.351674E-1,3.4621286E-1,7.1644545E-2,1.4291202E-1,2.2098923E-1,0E0,0E0,0E0,0E0,0E0,0E0,0E0,0E0],"parents":[2147483647,0,0,1,1,2,2,3,3,4,4,5,5,6,6],"right_children":[2,4,6,8,10,12,14,-1,-1,-1,-1,-1,-1,-1,-1],"split_conditions":[7.25E1,5E-1,3.63E1,4.634233E-4,5.625E1,1.6763501E2,1.0042E2,1.4696647E-2,4.8659887E-2,2.966306E-2,5.392412E-2,1.3371756E-3,2.1028688E-2,7.0116753E-3,3.2355007E-2],"split_indices":[4,26,3,14,0,1,0,0,0,0,0,0,0,0,0],"split_type":[0,0,0,0,0,0,0,0,0,0,0,0,0,0,0],"sum_hessian":[2.47E2,1.93E2,5.4E1,1.85E2,8E0,1.5E1,3.9E1,1.82E2,3E0,6E0,2E0,7E0,8E0,4E0,3.5E1],"tree_param":{"num_deleted":"0","num_feature":"32","num_nodes":"15","size_leaf_vector":"0"}},{"base_weights":[1.6301298E-1,1.5626884E-1,3.5884294E-1,1.2757379E-1,2.0519271E-1,3.919086E-1,1.0370622E-1,7.558999E-2,2.152904E-1,2.571039E-1,1.328698E-1,4.7746697E-1,3.1522036E-1],"categories":[],"categories_nodes":[],"categories_segments":[],"categories_sizes":[],"default_left":[1,1,0,0,1,1,0,0,0,0,0,0,0],"id":41,"left_children":[1,3,5,7,9,11,-1,-1,-1,-1,-1,-1,-1],"loss_changes":[3.15588E-1,3.297205E-1,5.9313297E-2,6.8445635E-1,3.2344413E-1,2.360773E-2,0E0,0E0,0E0,0E0,0E0,0E0,0E0],"parents":[2147483647,0,0,1,1,2,2,3,3,4,4,5,5],"right_children":[2,4,6,8,10,12,-1,-1,-1,-1,-1,-1,-1],"split_conditions":[5E-1,5E-1,1.2000001E1,1.2000001E1,2.77E1,6.1559775E-5,1.0370622E-2,7.558999E-3,2.152904E-2,2.5710389E-2,1.328698E-2,4.77467E-2,3.1522036E-2],"split_indices":[22,21,8,10,2,14,0,0,0,0,0,0,0],"split_type":[0,0,0,0,0,0,0,0,0,0,0,0,0],"sum_hessian":[2.47E2,2.39E2,8E0,1.51E2,8.8E1,7E0,1E0,9.5E1,5.6E1,5.1E1,3.7E1,3E0,4E0],"tree_param":{"num_deleted":"0","num_feature":"32","num_nodes":"13","size_leaf_vector":"0"}},{"base_weights":[1.4679995E-1,4.3874808E-2,1.5729924E-1,1.38681345E-2,1.8015286E-1,7.510291E-2,1.7398892E-1,1.3846892E-1,-1.9393455E-2,-0E0,2.3841435E-1,8.263305E-3,1.5655352E-1,3.8256156E-1,1.6311704E-1],"categories":[],"categories_nodes":[],"categories_segments":[],"categories_sizes":[],"default_left":[1,0,1,0,0,1,0,0,0,0,0,0,0,0,0],"id":42,"left_children":[1,3,5,7,9,11,13,-1,-1,-1,-1,-1,-1,-1,-1],"loss_changes":[2.6432467E-1,9.2271656E-2,3.036294E-1,8.061772E-2,4.314263E-2,2.0564368E-1,4.1029882E-1,0E0,0E0,0E0,0E0,0E0,0E0,0E0,0E0],"parents":[2147483647,0,0,1,1,2,2,3,3,4,4,5,5,6,6],"right_children":[2,4,6,8,10,12,14,-1,-1,-1,-1,-1,-1,-1,-1],"split_conditions":[5E-1,8.000001E0,1.5E0,4.5E0,5.7850002E1,2.555E1,2.1428573E-1,1.3846892E-2,-1.9393455E-3,-0E0,2.3841435E-2,8.263305E-4,1.5655352E-2,3.8256157E-2,1.6311703E-2],"split_indices":[11,7,7,8,0,2,16,0,0,0,0,0,0,0,0],"split_type":[0,0,0,0,0,0,0,0,0,0,0,0,0,0,0],"sum_hessian":[2.47E2,2.3E1,2.24E2,1.9E1,4E0,3.8E1,1.86E2,4E0,1.5E1,1E0,3E0,2.1E1,1.7E1,9E0,1.77E2],"tree_param":{"num_deleted":"0","num_feature":"32","num_nodes":"15","size_leaf_vector":"0"}},{"base_weights":[1.3217928E-1,1.2611903E-1,3.0820215E-1,4.7944702E-2,1.399028E-1,3.3789328E-1,7.944995E-2,-1.5388681E-1,7.388597E-2,3.9456746E-1,1.3322546E-1,3.006909E-1,5.04389E-1],"categories":[],"categories_nodes":[],"categories_segments":[],"categories_sizes":[],"default_left":[1,0,0,0,0,0,0,0,0,0,0,0,0],"id":43,"left_children":[1,3,5,7,9,11,-1,-1,-1,-1,-1,-1,-1],"loss_changes":[2.5536156E-1,2.5508952E-1,4.815662E-2,1.8934813E-1,3.348329E-1,2.0760357E-2,0E0,0E0,0E0,0E0,0E0,0E0,0E0],"parents":[2147483647,0,0,1,1,2,2,3,3,4,4,5,5],"right_children":[2,4,6,8,10,12,-1,-1,-1,-1,-1,-1,-1],"split_conditions":[5E-1,6.48E1,1.2000001E1,2.5E0,6.77E1,7.4E1,7.944996E-3,-1.5388682E-2,7.388597E-3,3.9456747E-2,1.3322546E-2,3.0069089E-2,5.04389E-2],"split_indices":[22,0,8,7,0,3,0,0,0,0,0,0,0],"split_type":[0,0,0,0,0,0,0,0,0,0,0,0,0],"sum_hessian":[2.47E2,2.39E2,8E0,3.6E1,2.03E2,7E0,1E0,4E0,3.2E1,5E0,1.98E2,6E0,1E0],"tree_param":{"num_deleted":"0","num_feature":"32","num_nodes":"13","size_leaf_vector":"0"}},{"base_weights":[1.1903116E-1,1.287997E-1,2.3315407E-2,1.6930128E-2,1.3910604E-1,-4.373119E-1,4.6589546E-2,-1.7621732E-1,4.113578E-2,1.4486232E-1,-8.7510325E-2,2.8714648E-2,3.761363E-1],"categories":[],"categories_nodes":[],"categories_segments":[],"categories_sizes":[],"default_left":[1,1,0,0,1,0,1,0,0,0,0,0,0],"id":44,"left_children":[1,3,5,7,9,-1,11,-1,-1,-1,-1,-1,-1],"loss_changes":[2.29218E-1,2.565837E-1,2.4577846E-1,8.8671535E-2,2.6938796E-1,0E0,1.25054E-1,0E0,0E0,0E0,0E0,0E0,0E0],"parents":[2147483647,0,0,1,1,2,2,3,3,4,4,6,6],"right_children":[2,4,6,8,10,-1,12,-1,-1,-1,-1,-1,-1],"split_conditions":[5E-1,5E-1,7.1000004E0,2.5E0,5E-1,-4.373119E-2,9.925E1,-1.7621731E-2,4.1135782E-3,1.4486233E-2,-8.751033E-3,2.8714647E-3,3.761363E-2],"split_indices":[19,13,2,7,24,0,0,0,0,0,0,0,0],"split_type":[0,0,0,0,0,0,0,0,0,0,0,0,0],"sum_hessian":[2.47E2,2.24E2,2.3E1,1.9E1,2.05E2,1E0,2.2E1,2E0,1.7E1,2E2,5E0,2.1E1,1E0],"tree_param":{"num_deleted":"0","num_feature":"32","num_nodes":"13","size_leaf_vector":"0"}},{"base_weights":[1.0712354E-1,1.0156302E-1,2.687046E-1,8.3502166E-2,1.6298464E-1,1.7582038E-1,3.52596E-1,7.0759274E-2,2.0769684E-1,2.398427E-1,9.0661004E-2,2.3256494E-1,1.0594152E-1,2.7072373E-1,4.1291612E-1],"categories":[],"categories_nodes":[],"categories_segments":[],"categories_sizes":[],"default_left":[1,0,0,1,1,0,1,0,0,0,0,0,0,1,1],"id":45,"left_children":[1,3,5,7,9,11,-1,-1,-1,-1,-1,-1,-1,-1,-1],"loss_changes":[2.1558094E-1,2.614143E-1,5.163324E-2,2.8868484E-1,2.9524362E-1,1.0408625E-2,2.2330284E-3,0E0,0E0,0E0,0E0,0E0,0E0,0E0,0E0],"parents":[2147483647,0,0,1,1,2,2,3,3,4,4,5,5,6,6],"right_children":[2,4,6,8,10,12,-1,-1,-1,-1,-1,-1,-1,-1,-1],"split_conditions":[5E-1,7.25E1,1.0000001E1,2.725E1,3.1439999E1,5.25E1,3.52596E-2,7.0759277E-3,2.0769684E-2,2.398427E-2,9.0661E-3,2.3256494E-2,1.0594152E-2,2.7072374E-2,4.1291613E-2],"split_indices":[26,4,10,3,2,4,0,0,0,0,0,0,0,2147483647,2147483647],"split_type":[0,0,0,0,0,0,0,0,0,0,0,0,0,0,0],"sum_hessian":[2.47E2,2.39E2,8E0,1.85E2,5.4E1,4E0,4E0,1.68E2,1.7E1,2.6E1,2.8E1,2E0,2E0,2E0,2E0],"tree_param":{"num_deleted":"2","num_feature":"32","num_nodes":"15","size_leaf_vector":"0"}},{"base_weights":[9.648792E-2,9.101929E-2,2.5548807E-1,6.77991E-2,1.3062732E-1,2.8191072E-1,5.2624825E-2,2.4949467E-2,1.4013815E-1,2.4824485E-2,1.615168E-1,3.5829613E-1,2.1484101E-1],"categories":[],"categories_nodes":[],"categories_segments":[],"categories_sizes":[],"default_left":[1,1,0,0,0,1,0,0,0,0,0,0,0],"id":46,"left_children":[1,3,5,7,9,11,-1,-1,-1,-1,-1,-1,-1],"loss_changes":[2.0906639E-1,2.1703184E-1,3.8588643E-2,4.6636438E-1,2.8566372E-1,2.2945285E-2,0E0,0E0,0E0,0E0,0E0,0E0,0E0],"parents":[2147483647,0,0,1,1,2,2,3,3,4,4,5,5],"right_children":[2,4,6,8,10,12,-1,-1,-1,-1,-1,-1,-1],"split_conditions":[5E-1,5E-1,1.2000001E1,1.2000001E1,1.2272E2,6.1559775E-5,5.2624824E-3,2.4949468E-3,1.4013815E-2,2.4824485E-3,1.615168E-2,3.5829615E-2,2.1484101E-2],"split_indices":[22,21,8,10,1,14,0,0,0,0,0,0,0],"split_type":[0,0,0,0,0,0,0,0,0,0,0,0,0],"sum_hessian":[2.47E2,2.39E2,8E0,1.51E2,8.8E1,7E0,1E0,9.5E1,5.6E1,2E1,6.8E1,3E0,4E0],"tree_param":{"num_deleted":"0","num_feature":"32","num_nodes":"13","size_leaf_vector":"0"}},{"base_weights":[8.6902976E-2,8.281488E-2,2.7730274E-1,9.103285E-2,-7.332039E-2,1.5055941E-1,4.4643322E-1,7.789756E-2,1.7450975E-1,2.9820914E-3,-2.9816574E-1],"categories":[],"categories_nodes":[],"categories_segments":[],"categories_sizes":[],"default_left":[1,1,0,1,0,0,0,0,0,0,0],"id":47,"left_children":[1,3,5,7,9,-1,-1,-1,-1,-1,-1],"loss_changes":[1.8643856E-1,3.114866E-1,9.663305E-2,2.4841952E-1,2.1063147E-1,0E0,0E0,0E0,0E0,0E0,0E0],"parents":[2147483647,0,0,1,1,2,2,3,3,4,4],"right_children":[2,4,6,8,10,-1,-1,-1,-1,-1,-1],"split_conditions":[4.634233E-4,1.0349917E-4,4.35E0,7.548787E-5,3.5E0,1.5055941E-2,4.4643324E-2,7.7897566E-3,1.7450975E-2,2.9820914E-4,-2.9816573E-2],"split_indices":[14,14,2,14,6,0,0,0,0,0,0],"split_type":[0,0,0,0,0,0,0,0,0,0,0],"sum_hessian":[2.47E2,2.42E2,5E0,2.3E2,1.2E1,3E0,2E0,1.99E2,3.1E1,9E0,3E0],"tree_param":{"num_deleted":"0","num_feature":"32","num_nodes":"11","size_leaf_vector":"0"}},{"base_weights":[7.8247316E-2,7.313047E-2,2.2708836E-1,5.7817154E-2,1.252041E-1,1.76462E-1,3.585703E-1,-4.818207E-2,6.7934275E-2,1.961391E-1,5.8516413E-2,2.1264176E-1,1.3136409E-1],"categories":[],"categories_nodes":[],"categories_segments":[],"categories_sizes":[],"default_left":[1,0,1,0,1,0,0,0,0,0,0,1,1],"id":48,"left_children":[1,3,5,7,9,-1,-1,-1,-1,-1,-1,-1,-1],"loss_changes":[1.8352759E-1,1.8810916E-1,4.2239577E-2,1.9902736E-1,2.5222522E-1,3.7195534E-3,0E0,0E0,0E0,0E0,0E0,0E0,0E0],"parents":[2147483647,0,0,1,1,2,2,3,3,4,4,5,5],"right_children":[2,4,6,8,10,-1,-1,-1,-1,-1,-1,-1,-1],"split_conditions":[5E-1,7.25E1,5.625E1,5.3221993E-5,3.1439999E1,1.76462E-2,3.5857033E-2,-4.818207E-3,6.7934277E-3,1.961391E-2,5.8516413E-3,2.1264177E-2,1.3136409E-2],"split_indices":[26,4,0,14,2,4,0,0,0,0,0,2147483647,2147483647],"split_type":[0,0,0,0,0,0,0,0,0,0,0,0,0],"sum_hessian":[2.47E2,2.39E2,8E0,1.85E2,5.4E1,6E0,2E0,1.6E1,1.69E2,2.6E1,2.8E1,3E0,3E0],"tree_param":{"num_deleted":"2","num_feature":"32","num_nodes":"13","size_leaf_vector":"0"}},{"base_weights":[7.046771E-2,6.552426E-2,2.1428664E-1,4.8274793E-2,1.0774685E-1,2.3770134E-1,3.4583908E-2,3.009336E-2,1.3592334E-1,1.4525087E-1,8.284746E-3,2.0414184E-1,3.931039E-1],"categories":[],"categories_nodes":[],"categories_segments":[],"categories_sizes":[],"default_left":[1,0,0,1,0,0,0,0,0,0,0,0,0],"id":49,"left_children":[1,3,5,7,9,11,-1,-1,-1,-1,-1,-1,-1],"loss_changes":[1.7147672E-1,1.7206025E-1,3.0537337E-2,2.6899812E-1,2.561031E-1,2.3030788E-2,0E0,0E0,0E0,0E0,0E0,0E0,0E0],"parents":[2147483647,0,0,1,1,2,2,3,3,4,4,5,5],"right_children":[2,4,6,8,10,12,-1,-1,-1,-1,-1,-1,-1],"split_conditions":[5E-1,2.5E0,1.2000001E1,2.725E1,5.3333336E-1,7.4E1,3.4583907E-3,3.009336E-3,1.3592334E-2,1.4525088E-2,8.284746E-4,2.0414185E-2,3.9310392E-2],"split_indices":[22,5,8,3,16,3,0,0,0,0,0,0,0],"split_type":[0,0,0,0,0,0,0,0,0,0,0,0,0],"sum_hessian":[2.47E2,2.39E2,8E0,1.7E2,6.9E1,7E0,1E0,1.41E2,2.9E1,5E1,1.9E1,6E0,1E0],"tree_param":{"num_deleted":"0","num_feature":"32","num_nodes":"13","size_leaf_vector":"0"}},{"base_weights":[6.348333E-2,-1.3994541E-2,7.148596E-2,-3.9658982E-2,1.0346651E-1,4.797814E-3,8.504678E-2,5.9448812E-2,-8.626903E-2,3.636952E-2,2.7406105E-1,1.8522826E-1,-1.6616985E-2,2.4897075E-1,7.6519325E-2],"categories":[],"categories_nodes":[],"categories_segments":[],"categories_sizes":[],"default_left":[1,0,1,1,1,0,0,0,0,0,0,0,0,0,0],"id":50,"left_children":[1,3,5,7,9,11,13,-1,-1,-1,-1,-1,-1,-1,-1],"loss_changes":[1.5388364E-1,6.9408886E-2,2.0172477E-1,8.901197E-2,4.2829107E-2,1.4920782E-1,2.5498068E-1,0E0,0E0,0E0,0E0,0E0,0E0,0E0,0E0],"parents":[2147483647,0,0,1,1,2,2,3,3,4,4,5,5,6,6],"right_children":[2,4,6,8,10,12,14,-1,-1,-1,-1,-1,-1,-1,-1],"split_conditions":[5E-1,8.000001E0,1.5E0,4.5E0,5.7850002E1,4.5E0,2.1428573E-1,5.944881E-3,-8.626903E-3,3.6369523E-3,2.7406106E-2,1.8522827E-2,-1.6616986E-3,2.4897074E-2,7.6519325E-3],"split_indices":[11,7,7,8,0,8,16,0,0,0,0,0,0,0,0],"split_type":[0,0,0,0,0,0,0,0,0,0,0,0,0,0,0],"sum_hessian":[2.47E2,2.3E1,2.24E2,1.9E1,4E0,3.8E1,1.86E2,6E0,1.3E1,3E0,1E0,4E0,3.4E1,9E0,1.77E2],"tree_param":{"num_deleted":"0","num_feature":"32","num_nodes":"15","size_leaf_vector":"0"}},{"base_weights":[5.7178304E-2,5.2600484E-2,1.9036825E-1,3.2886826E-2,8.623809E-2,1.4673033E-1,3.0329898E-1,3.2540355E-3,8.582685E-2,1.3434623E-1,1.9473959E-2,1.85247E-1,1.00254625E-1],"categories":[],"categories_nodes":[],"categories_segments":[],"categories_sizes":[],"default_left":[1,1,1,0,1,0,0,0,0,0,0,1,1],"id":51,"left_children":[1,3,5,7,9,-1,-1,-1,-1,-1,-1,-1,-1],"loss_changes":[1.4723063E-1,1.5707725E-1,3.09667E-2,2.3612101E-1,2.811684E-1,6.207347E-3,0E0,0E0,0E0,0E0,0E0,0E0,0E0],"parents":[2147483647,0,0,1,1,2,2,3,3,4,4,5,5],"right_children":[2,4,6,8,10,-1,-1,-1,-1,-1,-1,-1,-1],"split_conditions":[5E-1,5E-1,5.625E1,1.2000001E1,2.77E1,1.4673034E-2,3.0329898E-2,3.2540355E-4,8.582685E-3,1.3434623E-2,1.9473959E-3,1.85247E-2,1.0025463E-2],"split_indices":[26,21,0,10,2,4,0,0,0,0,0,2147483647,2147483647],"split_type":[0,0,0,0,0,0,0,0,0,0,0,0,0],"sum_hessian":[2.47E2,2.39E2,8E0,1.51E2,8.8E1,6E0,2E0,9.7E1,5.4E1,5.1E1,3.7E1,3E0,3E0],"tree_param":{"num_deleted":"2","num_feature":"32","num_nodes":"13","size_leaf_vector":"0"}},{"base_weights":[5.1508784E-2,4.695813E-2,1.8396686E-1,4.33478E-2,2.0979792E-1,2.0472181E-1,2.418799E-2,4.636984E-2,-2.8796208E-1,9.506171E-2,3.6441815E-1,2.7357846E-1,1.4522721E-1],"categories":[],"categories_nodes":[],"categories_segments":[],"categories_sizes":[],"default_left":[1,1,0,1,0,1,0,0,0,0,0,0,0],"id":52,"left_children":[1,3,5,7,9,11,-1,-1,-1,-1,-1,-1,-1],"loss_changes":[1.457715E-1,1.371274E-1,2.4076968E-2,2.3330787E-1,8.241771E-2,2.0924687E-2,0E0,0E0,0E0,0E0,0E0,0E0,0E0],"parents":[2147483647,0,0,1,1,2,2,3,3,4,4,5,5],"right_children":[2,4,6,8,10,12,-1,-1,-1,-1,-1,-1,-1],"split_conditions":[5E-1,4.634233E-4,1.2000001E1,2.865011E-4,4.35E0,6.1559775E-5,2.418799E-3,4.636984E-3,-2.8796209E-2,9.506172E-3,3.6441814E-2,2.7357846E-2,1.4522721E-2],"split_indices":[22,14,8,14,2,14,0,0,0,0,0,0,0],"split_type":[0,0,0,0,0,0,0,0,0,0,0,0,0],"sum_hessian":[2.47E2,2.39E2,8E0,2.34E2,5E0,7E0,1E0,2.32E2,2E0,3E0,2E0,3E0,4E0],"tree_param":{"num_deleted":"0","num_feature":"32","num_nodes":"13","size_leaf_vector":"0"}},{"base_weights":[4.6401046E-2,4.7943074E-2,-2.9371977E-1,5.1815294E-2,-8.1724815E-2,2.646287E-2,7.3318936E-2,-1.4237688E-1,-3.1433627E-2],"categories":[],"categories_nodes":[],"categories_segments":[],"categories_sizes":[],"default_left":[1,1,0,1,0,0,0,0,0],"id":53,"left_children":[1,3,-1,5,7,-1,-1,-1,-1],"loss_changes":[1.2854826E-1,1.2369174E-1,0E0,1.291582E-1,1.9471228E-2,0E0,0E0,0E0,0E0],"parents":[2147483647,0,0,1,1,3,3,4,4],"right_children":[2,4,-1,6,8,-1,-1,-1,-1],"split_conditions":[4.814E1,5E-1,-2.9371977E-2,2.5E0,6.4449997E0,2.646287E-3,7.331894E-3,-1.4237689E-2,-3.1433627E-3],"split_indices":[2,20,0,7,3,0,0,0,0],"split_type":[0,0,0,0,0,0,0,0,0],"sum_hessian":[2.47E2,2.46E2,1E0,2.39E2,7E0,1.1E2,1.29E2,3E0,4E0],"tree_param":{"num_deleted":"0","num_feature":"32","num_nodes":"9","size_leaf_vector":"0"}},{"base_weights":[4.1737914E-2,3.7665844E-2,1.6018952E-1,1.939982E-2,6.8837576E-2,2.3718257E-1,1.0828808E-1,-7.1309917E-3,6.7166954E-2,1.1113707E-1,1.0120933E-2,1.482883E-1,7.44722E-2],"categories":[],"categories_nodes":[],"categories_segments":[],"categories_sizes":[],"default_left":[1,1,0,0,1,0,0,0,0,0,0,1,1],"id":54,"left_children":[1,3,5,7,9,-1,-1,-1,-1,-1,-1,-1,-1],"loss_changes":[1.166051E-1,1.3512373E-1,2.6344895E-2,1.921374E-1,2.1748754E-1,0E0,3.566537E-3,0E0,0E0,0E0,0E0,0E0,0E0],"parents":[2147483647,0,0,1,1,2,2,3,3,4,4,6,6],"right_children":[2,4,6,8,10,-1,-1,-1,-1,-1,-1,-1,-1],"split_conditions":[5E-1,5E-1,1.518E2,1.2000001E1,2.77E1,2.3718258E-2,1.0828808E-2,-7.130992E-4,6.7166956E-3,1.1113707E-2,1.0120933E-3,1.482883E-2,7.44722E-3],"split_indices":[26,21,0,10,2,0,4,0,0,0,0,2147483647,2147483647],"split_type":[0,0,0,0,0,0,0,0,0,0,0,0,0],"sum_hessian":[2.47E2,2.39E2,8E0,1.51E2,8.8E1,3E0,5E0,9.7E1,5.4E1,5.1E1,3.7E1,2E0,3E0],"tree_param":{"num_deleted":"2","num_feature":"32","num_nodes":"13","size_leaf_vector":"0"}},{"base_weights":[3.7597626E-2,3.3461448E-2,1.5799266E-1,4.0140327E-2,-3.9010607E-2,8.463529E-2,1.9752376E-1,4.1721582E-2,-2.679376E-1,8.384943E-2,-7.067676E-2,1.4898235E-1,4.2137526E-2,1.5761498E-1,3.1922707E-1],"categories":[],"categories_nodes":[],"categories_segments":[],"categories_sizes":[],"default_left":[1,0,0,1,1,0,0,0,0,0,0,1,1,0,0],"id":55,"left_children":[1,3,5,7,9,-1,13,-1,-1,-1,-1,-1,-1,-1,-1],"loss_changes":[1.2060642E-1,1.1589989E-1,1.8995851E-2,1.05590224E-1,7.8660026E-2,5.9383027E-3,1.4970943E-2,0E0,0E0,0E0,0E0,0E0,0E0,0E0,0E0],"parents":[2147483647,0,0,1,1,2,2,3,3,4,4,5,5,6,6],"right_children":[2,4,6,8,10,-1,14,-1,-1,-1,-1,-1,-1,-1,-1],"split_conditions":[5E-1,2.5E0,7.365E1,4.814E1,5E-1,8.463529E-3,7.4E1,4.1721584E-3,-2.6793761E-2,8.384943E-3,-7.067676E-3,1.4898235E-2,4.2137527E-3,1.5761498E-2,3.192271E-2],"split_indices":[22,9,0,2,12,0,3,0,0,0,0,2147483647,2147483647,0,0],"split_type":[0,0,0,0,0,0,0,0,0,0,0,0,0,0,0],"sum_hessian":[2.47E2,2.39E2,8E0,2.19E2,2E1,3E0,5E0,2.18E2,1E0,4E0,1.6E1,1E0,2E0,4E0,1E0],"tree_param":{"num_deleted":"2","num_feature":"32","num_nodes":"15","size_leaf_vector":"0"}},{"base_weights":[3.3859912E-2,-5.785153E-3,4.3970678E-2,-1.3909082E-2,3.4827253E-1,4.86233E-2,-1.7379E-1,2.8356228E-2,-3.8784042E-2,5.6102473E-2,-7.361268E-2,1.2430118E-2,-3.5649627E-1],"categories":[],"categories_nodes":[],"categories_segments":[],"categories_sizes":[],"default_left":[0,0,1,1,0,1,1,0,0,0,0,0,0],"id":56,"left_children":[1,3,5,7,-1,9,11,-1,-1,-1,-1,-1,-1],"loss_changes":[9.945533E-2,1.4124538E-1,1.9928688E-1,5.1835433E-2,0E0,1.767745E-1,1.433805E-1,0E0,0E0,0E0,0E0,0E0,0E0],"parents":[2147483647,0,0,1,1,2,2,3,3,5,5,6,6],"right_children":[2,4,6,8,-1,10,12,-1,-1,-1,-1,-1,-1],"split_conditions":[1.5450001E1,8.000001E0,5E-1,1.5E0,3.4827255E-2,1.3987152E-4,3.5E0,2.8356228E-3,-3.8784042E-3,5.6102476E-3,-7.361268E-3,1.2430119E-3,-3.5649627E-2],"split_indices":[3,6,24,5,0,15,6,0,0,0,0,0,0],"split_type":[0,0,0,0,0,0,0,0,0,0,0,0,0],"sum_hessian":[2.47E2,5E1,1.97E2,4.9E1,1E0,1.93E2,4E0,1.8E1,3.1E1,1.82E2,1.1E1,2E0,2E0],"tree_param":{"num_deleted":"0","num_feature":"32","num_nodes":"13","size_leaf_vector":"0"}},{"base_weights":[3.0472856E-2,2.6710026E-2,1.3993526E-1,2.3605693E-2,1.6672045E-1,1.5774368E-1,3.1776777E-3,2.6350811E-2,-2.761574E-1,6.289244E-2,3.0728942E-1,1.3055132E-1,2.8510636E-1],"categories":[],"categories_nodes":[],"categories_segments":[],"categories_sizes":[],"default_left":[1,1,0,1,0,0,0,0,0,0,0,0,0],"id":57,"left_children":[1,3,5,7,9,11,-1,-1,-1,-1,-1,-1,-1],"loss_changes":[9.9737376E-2,1.0162534E-1,1.8067703E-2,1.9086704E-1,6.880006E-2,1.6710684E-2,0E0,0E0,0E0,0E0,0E0,0E0,0E0],"parents":[2147483647,0,0,1,1,2,2,3,3,4,4,5,5],"right_children":[2,4,6,8,10,12,-1,-1,-1,-1,-1,-1,-1],"split_conditions":[5E-1,4.634233E-4,1.2000001E1,2.865011E-4,4.35E0,7.4E1,3.177678E-4,2.635081E-3,-2.761574E-2,6.2892437E-3,3.0728942E-2,1.3055133E-2,2.8510636E-2],"split_indices":[22,14,8,14,2,3,0,0,0,0,0,0,0],"split_type":[0,0,0,0,0,0,0,0,0,0,0,0,0],"sum_hessian":[2.47E2,2.39E2,8E0,2.34E2,5E0,7E0,1E0,2.32E2,2E0,3E0,2E0,6E0,1E0],"tree_param":{"num_deleted":"0","num_feature":"32","num_nodes":"13","size_leaf_vector":"0"}},{"base_weights":[2.7463652E-2,5.2272617E-3,4.5521818E-2,-1.104716E-1,1.94496E-2,1.1896902E-1,1.6848113E-2,-2.0302609E-1,-4.1024417E-2,8.431397E-2,-1.1460852E-2,1.7461202E-1,-8.803724E-2,4.993228E-3,1.939219E-1],"categories":[],"categories_nodes":[],"categories_segments":[],"categories_sizes":[],"default_left":[1,0,0,0,0,1,1,0,0,0,0,0,0,0,0],"id":58,"left_children":[1,3,5,7,9,11,13,-1,-1,-1,-1,-1,-1,-1,-1],"loss_changes":[9.8691344E-2,1.8212059E-1,2.8506854E-1,7.450116E-2,1.9951937E-1,4.4125575E-1,2.0384449E-1,0E0,0E0,0E0,0E0,0E0,0E0,0E0,0E0],"parents":[2147483647,0,0,1,1,2,2,3,3,4,4,5,5,6,6],"right_children":[2,4,6,8,10,12,14,-1,-1,-1,-1,-1,-1,-1,-1],"split_conditions":[2.5E0,1.113E2,3.5E0,4.000001E0,2.7349998E1,1.0107501E-4,9.9604996E1,-2.0302609E-2,-4.102442E-3,8.431396E-3,-1.1460852E-3,1.7461201E-2,-8.803724E-3,4.993228E-4,1.939219E-2],"split_indices":[7,1,7,7,2,14,0,0,0,0,0,0,0,0,0],"split_type":[0,0,0,0,0,0,0,0,0,0,0,0,0,0,0],"sum_hessian":[2.47E2,1.11E2,1.36E2,1.2E1,9.9E1,3.8E1,9.8E1,5E0,7E0,3.2E1,6.7E1,3E1,8E0,9.2E1,6E0],"tree_param":{"num_deleted":"0","num_feature":"32","num_nodes":"15","size_leaf_vector":"0"}},{"base_weights":[2.4717823E-2,2.1191087E-2,1.2728211E-1,9.740437E-3,6.0144804E-2,1.9497079E-1,8.1681505E-2,-1.675326E-2,3.9683692E-2,1.2205384E-1,2.0721965E-3,1.2567258E-1,4.6020396E-2],"categories":[],"categories_nodes":[],"categories_segments":[],"categories_sizes":[],"default_left":[1,0,0,1,1,0,0,0,0,0,0,1,1],"id":59,"left_children":[1,3,5,7,9,-1,-1,-1,-1,-1,-1,-1,-1],"loss_changes":[8.7625846E-2,1.0589203E-1,2.0642757E-2,1.4713703E-1,1.9323479E-1,0E0,5.7054497E-3,0E0,0E0,0E0,0E0,0E0,0E0],"parents":[2147483647,0,0,1,1,2,2,3,3,4,4,6,6],"right_children":[2,4,6,8,10,-1,-1,-1,-1,-1,-1,-1,-1],"split_conditions":[5E-1,7.25E1,1.518E2,5.3221993E-5,3.1439999E1,1.949708E-2,8.168151E-3,-1.675326E-3,3.968369E-3,1.2205384E-2,2.0721965E-4,1.2567258E-2,4.6020397E-3],"split_indices":[26,4,0,14,2,0,4,0,0,0,0,2147483647,2147483647],"split_type":[0,0,0,0,0,0,0,0,0,0,0,0,0],"sum_hessian":[2.47E2,2.39E2,8E0,1.85E2,5.4E1,3E0,5E0,9.8E1,8.7E1,2.6E1,2.8E1,2E0,3E0],"tree_param":{"num_deleted":"2","num_feature":"32","num_nodes":"13","size_leaf_vector":"0"}},{"base_weights":[2.2275545E-2,-3.6817204E-2,2.8401447E-2,-1.4998814E-1,-4.1733654E-3,3.3131033E-2,-1.1520886E-1,-2.4111879E-1,-3.5577684E-3,-2.2757812E-1,9.637311E-3,3.6833674E-2,-1.1954406E-1,-7.39925E-2,-3.2420787E-1],"categories":[],"categories_nodes":[],"categories_segments":[],"categories_sizes":[],"default_left":[1,0,1,1,0,1,0,0,0,0,0,0,0,0,0],"id":60,"left_children":[1,3,5,7,9,11,13,-1,-1,-1,-1,-1,-1,-1,-1],"loss_changes":[8.946974E-2,8.3734915E-2,1.5177351E-1,6.552334E-2,5.824394E-2,1.2234002E-1,5.4779746E-2,0E0,0E0,0E0,0E0,0E0,0E0,0E0,0E0],"parents":[2147483647,0,0,1,1,2,2,3,3,4,4,5,5,6,6],"right_children":[2,4,6,8,10,12,14,-1,-1,-1,-1,-1,-1,-1,-1],"split_conditions":[5E-1,3E0,5E-1,8.5755005E1,2.38E1,5E-1,3.5E0,-2.411188E-2,-3.5577684E-4,-2.2757811E-2,9.6373115E-4,3.6833675E-3,-1.1954406E-2,-7.39925E-3,-3.2420788E-2],"split_indices":[11,7,23,0,4,24,6,0,0,0,0,0,0,0,0],"split_type":[0,0,0,0,0,0,0,0,0,0,0,0,0,0,0],"sum_hessian":[2.47E2,2.3E1,2.24E2,5E0,1.8E1,2.17E2,7E0,3E0,2E0,1E0,1.7E1,2.12E2,5E0,6E0,1E0],"tree_param":{"num_deleted":"0","num_feature":"32","num_nodes":"15","size_leaf_vector":"0"}},{"base_weights":[1.9989783E-2,2.5979439E-2,-3.7771292E-2,1.5359079E-3,4.7443897E-2,-3.578951E-1,-2.121413E-2,-2.3146393E-2,6.642146E-2,1.2497391E-1,1.6203972E-2,-4.3359455E-2,1.8699656E-1],"categories":[],"categories_nodes":[],"categories_segments":[],"categories_sizes":[],"default_left":[1,1,0,1,0,0,1,0,0,0,0,0,0],"id":61,"left_children":[1,3,5,7,9,-1,11,-1,-1,-1,-1,-1,-1],"loss_changes":[8.5469134E-2,1.1708082E-1,1.1788757E-1,1.6890673E-1,2.868497E-1,0E0,1.0127519E-1,0E0,0E0,0E0,0E0,0E0,0E0],"parents":[2147483647,0,0,1,1,2,2,3,3,4,4,6,6],"right_children":[2,4,6,8,10,-1,12,-1,-1,-1,-1,-1,-1],"split_conditions":[5E-1,2.5E0,7.1000004E0,6.9708956E-5,3.5E0,-3.5789512E-2,2.98E1,-2.3146393E-3,6.6421456E-3,1.2497391E-2,1.6203972E-3,-4.3359455E-3,1.8699657E-2],"split_indices":[19,7,2,14,7,0,2,0,0,0,0,0,0],"split_type":[0,0,0,0,0,0,0,0,0,0,0,0,0],"sum_hessian":[2.47E2,2.24E2,2.3E1,1.05E2,1.19E2,1E0,2.2E1,7.6E1,2.9E1,3.4E1,8.5E1,2E1,2E0],"tree_param":{"num_deleted":"0","num_feature":"32","num_nodes":"13","size_leaf_vector":"0"}},{"base_weights":[1.7989684E-2,1.921975E-2,-2.497545E-1,5.1748566E-3,4.4737786E-2,-1.7930267E-2,4.554337E-2,-3.884516E-2,6.985766E-2],"categories":[],"categories_nodes":[],"categories_segments":[],"categories_sizes":[],"default_left":[1,1,0,0,0,0,0,0,0],"id":62,"left_children":[1,3,-1,5,7,-1,-1,-1,-1],"loss_changes":[7.955543E-2,8.767949E-2,0E0,1.4875348E-1,1.8345602E-1,0E0,0E0,0E0,0E0],"parents":[2147483647,0,0,1,1,3,3,4,4],"right_children":[2,4,-1,6,8,-1,-1,-1,-1],"split_conditions":[4.814E1,5E-1,-2.497545E-2,1.2000001E1,1.2272E2,-1.7930268E-3,4.554337E-3,-3.884516E-3,6.985766E-3],"split_indices":[2,21,0,10,1,0,0,0,0],"split_type":[0,0,0,0,0,0,0,0,0],"sum_hessian":[2.47E2,2.46E2,1E0,1.59E2,8.7E1,1.01E2,5.8E1,2E1,6.7E1],"tree_param":{"num_deleted":"0","num_feature":"32","num_nodes":"9","size_leaf_vector":"0"}},{"base_weights":[1.6174754E-2,1.4531846E-2,2.0239341E-1,-4.865716E-2,1.9605681E-2,3.821505E-1,-0E0,-1.2536415E-1,-0E0,1.7893091E-1,1.7348345E-2],"categories":[],"categories_nodes":[],"categories_segments":[],"categories_sizes":[],"default_left":[1,0,0,1,0,0,0,0,0,0,0],"id":63,"left_children":[1,3,5,7,9,-1,-1,-1,-1,-1,-1],"loss_changes":[7.313442E-2,7.8386515E-2,7.462041E-2,6.873271E-2,7.940342E-2,0E0,0E0,0E0,0E0,0E0,0E0],"parents":[2147483647,0,0,1,1,2,2,3,3,4,4],"right_children":[2,4,6,8,10,-1,-1,-1,-1,-1,-1],"split_conditions":[1.3467E2,5.3221993E-5,1.501E2,5.5E0,3.5E0,3.8215052E-2,-0E0,-1.2536416E-2,-0E0,1.789309E-2,1.7348345E-3],"split_indices":[0,14,0,8,8,0,0,0,0,0,0],"split_type":[0,0,0,0,0,0,0,0,0,0,0],"sum_hessian":[2.47E2,2.45E2,2E0,1.8E1,2.27E2,1E0,1E0,7E0,1.1E1,3E0,2.24E2],"tree_param":{"num_deleted":"0","num_feature":"32","num_nodes":"11","size_leaf_vector":"0"}},{"base_weights":[1.4585433E-2,-3.9875624E-3,2.9809542E-2,-9.86864E-2,7.4781757E-3,1.9883448E-2,1.8518627E-1,-1.8159777E-1,-3.6331933E-2,6.789832E-2,-2.128836E-2,7.571799E-2,-1.9147651E-3,2.6413062E-1,4.6110533E-2],"categories":[],"categories_nodes":[],"categories_segments":[],"categories_sizes":[],"default_left":[1,0,1,0,0,0,0,0,0,0,0,0,0,0,0],"id":64,"left_children":[1,3,5,7,9,11,13,-1,-1,-1,-1,-1,-1,-1,-1],"loss_changes":[7.013944E-2,1.2161738E-1,2.0748591E-1,5.9716642E-2,1.728542E-1,1.5666221E-1,8.4611565E-2,0E0,0E0,0E0,0E0,0E0,0E0,0E0,0E0],"parents":[2147483647,0,0,1,1,2,2,3,3,4,4,5,5,6,6],"right_children":[2,4,6,8,10,12,14,-1,-1,-1,-1,-1,-1,-1,-1],"split_conditions":[2.5E0,1.113E2,9.9604996E1,4.000001E0,2.7349998E1,3.5E0,3.51E1,-1.8159777E-2,-3.6331934E-3,6.789832E-3,-2.128836E-3,7.571799E-3,-1.9147652E-4,2.6413063E-2,4.6110535E-3],"split_indices":[7,1,0,7,2,7,2,0,0,0,0,0,0,0,0],"split_type":[0,0,0,0,0,0,0,0,0,0,0,0,0,0,0],"sum_hessian":[2.47E2,1.11E2,1.36E2,1.2E1,9.9E1,1.28E2,8E0,5E0,7E0,3.2E1,6.7E1,3.6E1,9.2E1,5E0,3E0],"tree_param":{"num_deleted":"0","num_feature":"32","num_nodes":"15","size_leaf_vector":"0"}},{"base_weights":[1.3131382E-2,-3.8026307E-2,1.8443428E-2,-1.4786725E-1,-6.314074E-3,2.2372797E-2,-1.00558005E-1,-2.2644389E-1,-2.0069959E-2,-5.936887E-2,4.5711208E-2,2.5572322E-2,-1.091677E-1,-6.387011E-2,-2.8577653E-1],"categories":[],"categories_nodes":[],"categories_segments":[],"categories_sizes":[],"default_left":[1,0,1,1,0,1,0,0,0,0,0,0,0,0,0],"id":65,"left_children":[1,3,5,7,9,11,13,-1,-1,-1,-1,-1,-1,-1,-1],"loss_changes":[6.7024216E-2,7.8829095E-2,1.0423238E-1,4.8293985E-2,5.0367408E-2,9.0813465E-2,4.2924747E-2,0E0,0E0,0E0,0E0,0E0,0E0,0E0,0E0],"parents":[2147483647,0,0,1,1,2,2,3,3,4,4,5,5,6,6],"right_children":[2,4,6,8,10,12,14,-1,-1,-1,-1,-1,-1,-1,-1],"split_conditions":[5E-1,3E0,5E-1,8.5755005E1,3.6E1,5E-1,3.5E0,-2.264439E-2,-2.006996E-3,-5.936887E-3,4.5711207E-3,2.5572323E-3,-1.091677E-2,-6.387011E-3,-2.8577654E-2],"split_indices":[11,7,23,0,4,24,6,0,0,0,0,0,0,0,0],"split_type":[0,0,0,0,0,0,0,0,0,0,0,0,0,0,0],"sum_hessian":[2.47E2,2.3E1,2.24E2,5E0,1.8E1,2.17E2,7E0,3E0,2E0,9E0,9E0,2.12E2,5E0,6E0,1E0],"tree_param":{"num_deleted":"0","num_feature":"32","num_nodes":"15","size_leaf_vector":"0"}},{"base_weights":[1.1770299E-2,1.4601772E-2,-8.273867E-2,-4.781001E-3,3.1348214E-2,-1.3402762E-1,-3.9502177E-2,-9.017489E-2,5.549415E-3,2.2323683E-2,1.6464895E-1,-1.2323084E-2,-1.0341579E-1],"categories":[],"categories_nodes":[],"categories_segments":[],"categories_sizes":[],"default_left":[1,1,0,0,1,0,1,0,0,0,0,1,1],"id":66,"left_children":[1,3,5,7,9,-1,-1,-1,-1,-1,-1,-1,-1],"loss_changes":[6.556329E-2,7.8215316E-2,1.3479903E-2,9.890363E-2,1.5306701E-1,0E0,5.8373376E-3,0E0,0E0,0E0,0E0,0E0,0E0],"parents":[2147483647,0,0,1,1,2,2,3,3,4,4,6,6],"right_children":[2,4,6,8,10,-1,-1,-1,-1,-1,-1,-1,-1],"split_conditions":[5E-1,2.5E0,6.4449997E0,1.113E2,9.9604996E1,-1.3402762E-2,-3.9502177E-3,-9.017489E-3,5.5494154E-4,2.2323683E-3,1.6464895E-2,-1.2323085E-3,-1.0341579E-2],"split_indices":[20,7,3,1,0,0,0,0,0,0,0,2147483647,2147483647],"split_type":[0,0,0,0,0,0,0,0,0,0,0,0,0],"sum_hessian":[2.47E2,2.4E2,7E0,1.11E2,1.29E2,3E0,4E0,1.2E1,9.9E1,1.21E2,8E0,3E0,1E0],"tree_param":{"num_deleted":"2","num_feature":"32","num_nodes":"13","size_leaf_vector":"0"}},{"base_weights":[1.0586225E-2,1.5859116E-2,-4.018058E-2,-3.395228E-3,3.2920793E-2,-3.3654407E-1,-2.4795154E-2,-1.8986048E-2,7.109649E-2,9.400061E-2,8.289606E-3,-4.321887E-2,1.4796495E-1],"categories":[],"categories_nodes":[],"categories_segments":[],"categories_sizes":[],"default_left":[1,1,0,1,0,0,1,0,0,0,0,0,0],"id":67,"left_children":[1,3,5,7,9,-1,11,-1,-1,-1,-1,-1,-1],"loss_changes":[6.5966144E-2,7.392584E-2,1.0088071E-1,1.2167565E-1,1.7808138E-1,0E0,6.993374E-2,0E0,0E0,0E0,0E0,0E0,0E0],"parents":[2147483647,0,0,1,1,2,2,3,3,4,4,6,6],"right_children":[2,4,6,8,10,-1,12,-1,-1,-1,-1,-1,-1],"split_conditions":[5E-1,2.5E0,7.1000004E0,7.72044E-5,3.5E0,-3.3654407E-2,2.98E1,-1.8986048E-3,7.109649E-3,9.400061E-3,8.289606E-4,-4.321887E-3,1.4796495E-2],"split_indices":[19,7,2,14,7,0,2,0,0,0,0,0,0],"split_type":[0,0,0,0,0,0,0,0,0,0,0,0,0],"sum_hessian":[2.47E2,2.24E2,2.3E1,1.05E2,1.19E2,1E0,2.2E1,8.7E1,1.8E1,3.4E1,8.5E1,2E1,2E0],"tree_param":{"num_deleted":"0","num_feature":"32","num_nodes":"13","size_leaf_vector":"0"}},{"base_weights":[9.524575E-3,-2.1898558E-3,3.078239E-2,-7.948907E-2,6.4386292E-3,4.172593E-2,-1.461757E-1,5.4366667E-2,-1.6053571E-1,3.6595043E-2,-1.720074E-2,8.582072E-3,1.2241594E-1,-3.3169848E-1,-1.2557811E-2],"categories":[],"categories_nodes":[],"categories_segments":[],"categories_sizes":[],"default_left":[1,0,1,0,1,0,0,0,0,0,0,0,0,0,0],"id":68,"left_children":[1,3,5,7,9,11,13,-1,-1,-1,-1,-1,-1,-1,-1],"loss_changes":[6.1826304E-2,1.06897414E-1,1.7017525E-1,1.7659625E-1,1.0226981E-1,2.2082576E-1,1.2256563E-1,0E0,0E0,0E0,0E0,0E0,0E0,0E0,0E0],"parents":[2147483647,0,0,1,1,2,2,3,3,4,4,5,5,6,6],"right_children":[2,4,6,8,10,12,14,-1,-1,-1,-1,-1,-1,-1,-1],"split_conditions":[5E-1,2.5E0,1.67725E2,3.5E0,5.5E0,7E1,1.07495E2,5.436667E-3,-1.605357E-2,3.6595042E-3,-1.720074E-3,8.5820723E-4,1.2241594E-2,-3.3169847E-2,-1.2557812E-3],"split_indices":[21,10,1,6,10,4,0,0,0,0,0,0,0,0,0],"split_type":[0,0,0,0,0,0,0,0,0,0,0,0,0,0,0],"sum_hessian":[2.47E2,1.59E2,8.8E1,1.6E1,1.43E2,8.3E1,5E0,6E0,1E1,6.3E1,8E1,5.9E1,2.4E1,2E0,3E0],"tree_param":{"num_deleted":"0","num_feature":"32","num_nodes":"15","size_leaf_vector":"0"}},{"base_weights":[8.556088E-3,9.646105E-3,-2.2699724E-1,-1.9697915E-3,3.0967856E-2,-7.1544304E-2,5.7894443E-3,4.1202057E-2,-1.3242914E-1],"categories":[],"categories_nodes":[],"categories_segments":[],"categories_sizes":[],"default_left":[1,1,0,0,1,0,0,0,0],"id":69,"left_children":[1,3,-1,5,7,-1,-1,-1,-1],"loss_changes":[6.1490104E-2,6.1247975E-2,0E0,8.658832E-2,1.4528526E-1,0E0,0E0,0E0,0E0],"parents":[2147483647,0,0,1,1,3,3,4,4],"right_children":[2,4,-1,6,8,-1,-1,-1,-1],"split_conditions":[4.814E1,5E-1,-2.2699725E-2,2.5E0,1.67725E2,-7.1544307E-3,5.7894445E-4,4.120206E-3,-1.3242914E-2],"split_indices":[2,21,0,10,1,0,0,0,0],"split_type":[0,0,0,0,0,0,0,0,0],"sum_hessian":[2.47E2,2.46E2,1E0,1.59E2,8.7E1,1.6E1,1.43E2,8.2E1,5E0],"tree_param":{"num_deleted":"0","num_feature":"32","num_nodes":"9","size_leaf_vector":"0"}},{"base_weights":[7.6769902E-3,7.0229605E-2,3.847048E-3,-9.665404E-2,1.17104955E-1,-1.5042628E-2,1.8125575E-2,-2.1497834E-1,-2.5310172E-2,2.2057657E-1,-6.24948E-2,-2.3430837E-2,1.3970697E-1,2.5980176E-2,-6.7537434E-2],"categories":[],"categories_nodes":[],"categories_segments":[],"categories_sizes":[],"default_left":[0,1,1,0,1,1,1,0,0,0,0,0,0,0,0],"id":70,"left_children":[1,3,5,7,9,11,13,-1,-1,-1,-1,-1,-1,-1,-1],"loss_changes":[5.8430687E-2,1.1163685E-1,6.292907E-2,2.3222312E-2,2.0923592E-1,1.291016E-1,8.9316055E-2,0E0,0E0,0E0,0E0,0E0,0E0,0E0,0E0],"parents":[2147483647,0,0,1,1,2,2,3,3,4,4,5,5,6,6],"right_children":[2,4,6,8,10,12,14,-1,-1,-1,-1,-1,-1,-1,-1],"split_conditions":[2.1428573E-1,5E-1,2.5E0,4.335E1,2.8315E1,3.84E1,1.0237118E-4,-2.1497834E-2,-2.5310172E-3,2.2057658E-2,-6.24948E-3,-2.3430837E-3,1.3970697E-2,2.5980177E-3,-6.7537436E-3],"split_indices":[16,10,7,3,2,3,14,0,0,0,0,0,0,0,0],"split_type":[0,0,0,0,0,0,0,0,0,0,0,0,0,0,0],"sum_hessian":[2.47E2,1.4E1,2.33E2,3E0,1.1E1,1E2,1.33E2,1E0,2E0,7E0,4E0,9.5E1,5E0,1.22E2,1.1E1],"tree_param":{"num_deleted":"0","num_feature":"32","num_nodes":"15","size_leaf_vector":"0"}},{"base_weights":[6.897004E-3,9.486959E-3,-7.937596E-2,1.0508044E-2,-2.0423129E-1,-1.0560975E-1,-7.123602E-3,8.52331E-3,1.2162028E-1,-1.2691782E-1,-7.4969553E-3,-3.5643354E-2,1.2952839E-2],"categories":[],"categories_nodes":[],"categories_segments":[],"categories_sizes":[],"default_left":[1,1,0,1,0,1,0,0,0,1,1,1,1],"id":71,"left_children":[1,3,5,7,-1,-1,-1,-1,-1,-1,-1,-1,-1],"loss_changes":[5.4589212E-2,5.0673068E-2,1.2255158E-2,5.132321E-2,0E0,9.222727E-3,1.4754811E-3,0E0,0E0,0E0,0E0,0E0,0E0],"parents":[2147483647,0,0,1,1,2,2,3,3,5,5,6,6],"right_children":[2,4,6,8,-1,-1,-1,-1,-1,-1,-1,-1,-1],"split_conditions":[5E-1,4.814E1,1.138E2,1.17149994E2,-2.042313E-2,-1.0560975E-2,-7.123602E-4,8.52331E-4,1.2162029E-2,-1.2691783E-2,-7.496955E-4,-3.5643354E-3,1.2952839E-3],"split_indices":[20,2,0,0,0,3,4,0,0,2147483647,2147483647,2147483647,2147483647],"split_type":[0,0,0,0,0,0,0,0,0,0,0,0,0],"sum_hessian":[2.47E2,2.4E2,7E0,2.39E2,1E0,5E0,2E0,2.35E2,4E0,4E0,1E0,1E0,1E0],"tree_param":{"num_deleted":"4","num_feature":"32","num_nodes":"13","size_leaf_vector":"0"}},{"base_weights":[6.1914045E-3,8.943682E-2,3.6855252E-3,3.3523253E-1,-1.1566058E-2,-9.8568134E-2,7.753633E-3,1.14174E-1,-9.959751E-2,-6.6589355E-3,-2.0805109E-1,9.46518E-2,2.9054214E-3],"categories":[],"categories_nodes":[],"categories_segments":[],"categories_sizes":[],"default_left":[0,0,0,0,0,0,0,0,0,0,0,0,0],"id":72,"left_children":[1,3,5,-1,7,9,11,-1,-1,-1,-1,-1,-1],"loss_changes":[5.05816E-2,1.7988953E-1,9.904482E-2,0E0,5.744369E-2,8.9283034E-2,9.635952E-2,0E0,0E0,0E0,0E0,0E0,0E0],"parents":[2147483647,0,0,1,1,2,2,4,4,5,5,6,6],"right_children":[2,4,6,-1,8,10,12,-1,-1,-1,-1,-1,-1],"split_conditions":[5E-1,8.13E1,1.5E0,3.3523254E-2,6.3800003E1,3.5E0,2.1428573E-1,1.14174E-2,-9.959752E-3,-6.6589355E-4,-2.080511E-2,9.46518E-3,2.9054214E-4],"split_indices":[7,0,7,0,3,6,16,0,0,0,0,0,0],"split_type":[0,0,0,0,0,0,0,0,0,0,0,0,0],"sum_hessian":[2.47E2,7E0,2.4E2,2E0,5E0,9E0,2.31E2,2E0,3E0,5E0,4E0,1.2E1,2.19E2],"tree_param":{"num_deleted":"0","num_feature":"32","num_nodes":"13","size_leaf_vector":"0"}},{"base_weights":[5.5813887E-3,2.9014763E-3,8.338495E-2,-7.2818284E-4,6.1535954E-2,1.321821E-1,3.0114997E-2,1.568017E-2,-1.7371465E-2,1.6609685E-1,-1.9510275E-1,1.5482786E-1,4.725477E-2,-4.9101696E-3,6.846802E-2],"categories":[],"categories_nodes":[],"categories_segments":[],"categories_sizes":[],"default_left":[1,1,0,0,0,1,0,0,0,0,0,1,1,1,1],"id":73,"left_children":[1,3,5,7,9,-1,-1,-1,-1,-1,-1,-1,-1,-1,-1],"loss_changes":[5.0634954E-2,5.1498573E-2,1.9034285E-2,6.151645E-2,3.813152E-1,5.132839E-3,6.1768135E-3,0E0,0E0,0E0,0E0,0E0,0E0,0E0,0E0],"parents":[2147483647,0,0,1,1,2,2,3,3,4,4,5,5,6,6],"right_children":[2,4,6,8,10,-1,-1,-1,-1,-1,-1,-1,-1,-1,-1],"split_conditions":[5E-1,8.1E1,5.25E1,8.99E1,1.2000001E1,1.3218211E-2,3.0114998E-3,1.568017E-3,-1.7371465E-3,1.6609685E-2,-1.9510275E-2,1.5482786E-2,4.725477E-3,-4.9101695E-4,6.846802E-3],"split_indices":[26,4,4,0,10,10,5,0,0,0,0,2147483647,2147483647,2147483647,2147483647],"split_type":[0,0,0,0,0,0,0,0,0,0,0,0,0,0,0],"sum_hessian":[2.47E2,2.39E2,8E0,2.25E2,1.4E1,4E0,4E0,1.13E2,1.12E2,1E1,4E0,3E0,1E0,2E0,2E0],"tree_param":{"num_deleted":"4","num_feature":"32","num_nodes":"15","size_leaf_vector":"0"}},{"base_weights":[5.0328886E-3,5.9989146E-3,-2.0246007E-1,-3.780304E-2,1.0576348E-2,-1.4783247E-1,-6.038931E-3,1.3875093E-2,-8.8566825E-2],"categories":[],"categories_nodes":[],"categories_segments":[],"categories_sizes":[],"default_left":[1,1,0,0,1,0,0,0,0],"id":74,"left_children":[1,3,-1,5,7,-1,-1,-1,-1],"loss_changes":[4.7686443E-2,4.9110893E-2,0E0,7.910621E-2,7.234039E-2,0E0,0E0,0E0,0E0],"parents":[2147483647,0,0,1,1,3,3,4,4],"right_children":[2,4,-1,6,8,-1,-1,-1,-1],"split_conditions":[5E-1,5E-1,-2.0246007E-2,3E0,5E-1,-1.4783247E-2,-6.0389313E-4,1.3875094E-3,-8.856683E-3],"split_indices":[27,11,0,7,23,0,0,0,0],"split_type":[0,0,0,0,0,0,0,0,0],"sum_hessian":[2.47E2,2.46E2,1E0,2.3E1,2.23E2,5E0,1.8E1,2.16E2,7E0],"tree_param":{"num_deleted":"0","num_feature":"32","num_nodes":"9","size_leaf_vector":"0"}},{"base_weights":[4.495871E-3,2.479503E-3,9.816511E-2,7.5003104E-3,-8.45827E-2,1.0802743E-2,2.1769217E-1,3.4175129E-3,1.3370302E-1,3.0493722E-3,-1.8683344E-1,-0E0,3.583062E-2],"categories":[],"categories_nodes":[],"categories_segments":[],"categories_sizes":[],"default_left":[1,1,0,1,0,0,0,0,0,0,0,1,1],"id":75,"left_children":[1,3,5,7,9,-1,-1,-1,-1,-1,-1,-1,-1],"loss_changes":[4.5639403E-2,1.0511998E-1,5.0734937E-2,1.166292E-1,1.19276635E-1,1.0504489E-3,0E0,0E0,0E0,0E0,0E0,0E0,0E0],"parents":[2147483647,0,0,1,1,2,2,3,3,4,4,5,5],"right_children":[2,4,6,8,10,-1,-1,-1,-1,-1,-1,-1,-1],"split_conditions":[4.634233E-4,1.0237118E-4,4.35E0,9.0363035E-5,7.1149994E1,1.0802743E-3,2.1769216E-2,3.417513E-4,1.33703025E-2,3.0493722E-4,-1.8683344E-2,-0E0,3.5830622E-3],"split_indices":[14,14,2,14,0,1,0,0,0,0,0,2147483647,2147483647],"split_type":[0,0,0,0,0,0,0,0,0,0,0,0,0],"sum_hessian":[2.47E2,2.42E2,5E0,2.29E2,1.3E1,3E0,2E0,2.22E2,7E0,7E0,6E0,2E0,1E0],"tree_param":{"num_deleted":"2","num_feature":"32","num_nodes":"13","size_leaf_vector":"0"}},{"base_weights":[4.066069E-3,1.5639272E-3,7.664083E-2,8.335453E-3,-3.2838598E-2,9.396879E-2,-3.3079702E-2,4.9418346E-3,3.2330796E-1,2.7229754E-2,-7.075346E-2,7.0760325E-2,2.0503671E-1],"categories":[],"categories_nodes":[],"categories_segments":[],"categories_sizes":[],"default_left":[1,1,0,1,0,0,0,0,0,0,0,0,0],"id":76,"left_children":[1,3,5,7,9,11,-1,-1,-1,-1,-1,-1,-1],"loss_changes":[4.4077434E-2,5.5482503E-2,1.6319722E-2,2.1044393E-1,8.967749E-2,1.4092967E-2,0E0,0E0,0E0,0E0,0E0,0E0,0E0],"parents":[2147483647,0,0,1,1,2,2,3,3,4,4,5,5],"right_children":[2,4,6,8,10,12,-1,-1,-1,-1,-1,-1,-1],"split_conditions":[5E-1,3.0705E1,1.2000001E1,1.01345E2,3.5E0,7.4E1,-3.3079702E-3,4.9418345E-4,3.2330796E-2,2.7229756E-3,-7.0753465E-3,7.0760325E-3,2.0503672E-2],"split_indices":[22,2,8,0,6,3,0,0,0,0,0,0,0],"split_type":[0,0,0,0,0,0,0,0,0,0,0,0,0],"sum_hessian":[2.47E2,2.39E2,8E0,2E2,3.9E1,7E0,1E0,1.98E2,2E0,1.5E1,2.4E1,6E0,1E0],"tree_param":{"num_deleted":"0","num_feature":"32","num_nodes":"13","size_leaf_vector":"0"}},{"base_weights":[3.6890532E-3,8.170843E-2,1.3387555E-3,2.99695E-1,-7.692083E-3,-9.0285E-2,4.9893064E-3,1.0644242E-1,-8.798668E-2,-9.300614E-3,-1.8638058E-1,8.000754E-2,7.984367E-4],"categories":[],"categories_nodes":[],"categories_segments":[],"categories_sizes":[],"default_left":[0,0,0,0,0,0,0,0,0,0,0,0,0],"id":77,"left_children":[1,3,5,-1,7,9,11,-1,-1,-1,-1,-1,-1],"loss_changes":[4.4469014E-2,1.4151615E-1,7.950006E-2,0E0,4.749036E-2,6.868825E-2,7.184146E-2,0E0,0E0,0E0,0E0,0E0,0E0],"parents":[2147483647,0,0,1,1,2,2,4,4,5,5,6,6],"right_children":[2,4,6,-1,8,10,12,-1,-1,-1,-1,-1,-1],"split_conditions":[5E-1,8.13E1,1.5E0,2.9969499E-2,6.3800003E1,3.5E0,2.1428573E-1,1.0644242E-2,-8.798668E-3,-9.300614E-4,-1.8638058E-2,8.000754E-3,7.9843674E-5],"split_indices":[7,0,7,0,3,6,16,0,0,0,0,0,0],"split_type":[0,0,0,0,0,0,0,0,0,0,0,0,0],"sum_hessian":[2.47E2,7E0,2.4E2,2E0,5E0,9E0,2.31E2,2E0,3E0,5E0,4E0,1.2E1,2.19E2],"tree_param":{"num_deleted":"0","num_feature":"32","num_nodes":"13","size_leaf_vector":"0"}},{"base_weights":[3.3281506E-3,5.6488235E-3,-7.378823E-2,4.904091E-2,7.6074275E-4,-9.855518E-2,-5.3643E-3,1.9431868E-1,-0E0,-6.587078E-2,4.759593E-3,-1.197034E-1,-1.679542E-3,-3.396402E-2,1.4632173E-2],"categories":[],"categories_nodes":[],"categories_segments":[],"categories_sizes":[],"default_left":[1,1,0,0,1,1,0,0,0,0,0,1,1,1,1],"id":78,"left_children":[1,3,5,7,9,-1,-1,-1,-1,-1,-1,-1,-1,-1,-1],"loss_changes":[4.358177E-2,5.0424427E-2,1.0939963E-2,1.7237373E-1,5.699997E-2,9.214677E-3,1.4439914E-3,0E0,0E0,0E0,0E0,0E0,0E0,0E0,0E0],"parents":[2147483647,0,0,1,1,2,2,3,3,4,4,5,5,6,6],"right_children":[2,4,6,8,10,-1,-1,-1,-1,-1,-1,-1,-1,-1,-1],"split_conditions":[5E-1,5E-1,1.138E2,3.5E0,1.5E0,-9.855518E-3,-5.3643005E-4,1.9431869E-2,-0E0,-6.587078E-3,4.759593E-4,-1.197034E-2,-1.679542E-4,-3.3964019E-3,1.4632173E-3],"split_indices":[20,12,0,7,6,3,4,0,0,0,0,2147483647,2147483647,2147483647,2147483647],"split_type":[0,0,0,0,0,0,0,0,0,0,0,0,0,0,0],"sum_hessian":[2.47E2,2.4E2,7E0,2.4E1,2.16E2,5E0,2E0,6E0,1.8E1,1.2E1,2.04E2,4E0,1E0,1E0,1E0],"tree_param":{"num_deleted":"4","num_feature":"32","num_nodes":"15","size_leaf_vector":"0"}},{"base_weights":[2.987074E-3,2.058275E-3,2.0142229E-1,-1.2858503E-2,1.4197375E-2,-6.4468846E-2,2.2614212E-3,7.1979873E-3,1.2348154E-1],"categories":[],"categories_nodes":[],"categories_segments":[],"categories_sizes":[],"default_left":[1,1,0,0,1,0,0,0,0],"id":79,"left_children":[1,3,-1,5,7,-1,-1,-1,-1],"loss_changes":[4.3465856E-2,4.4594508E-2,0E0,8.655258E-2,1.0271023E-1,0E0,0E0,0E0,0E0],"parents":[2147483647,0,0,1,1,3,3,4,4],"right_children":[2,4,-1,6,8,-1,-1,-1,-1],"split_conditions":[3.5E0,2.5E0,2.014223E-2,2.36E1,9.9604996E1,-6.4468845E-3,2.2614212E-4,7.197987E-4,1.2348155E-2],"split_indices":[5,7,0,2,0,0,0,0,0],"split_type":[0,0,0,0,0,0,0,0,0],"sum_hessian":[2.47E2,2.46E2,1E0,1.1E2,1.36E2,2.5E1,8.5E1,1.28E2,8E0],"tree_param":{"num_deleted":"0","num_feature":"32","num_nodes":"9","size_leaf_vector":"0"}},{"base_weights":[2.7073014E-3,3.198109E-4,7.191449E-2,-1.0206292E-2,1.8486237E-2,1.1587288E-1,2.376306E-2,4.0746137E-2,-1.9464532E-2,5.5136316E-2,-2.9493222E-2,6.3486665E-2,1.5797944E-1,-1.1110869E-2,6.2267322E-2],"categories":[],"categories_nodes":[],"categories_segments":[],"categories_sizes":[],"default_left":[1,1,0,1,1,0,0,0,0,0,0,1,1,1,1],"id":80,"left_children":[1,3,5,7,9,-1,-1,-1,-1,-1,-1,-1,-1,-1,-1],"loss_changes":[4.010406E-2,4.5822773E-2,1.5473232E-2,7.1144864E-2,1.5533859E-1,5.826179E-3,6.086207E-3,0E0,0E0,0E0,0E0,0E0,0E0,0E0,0E0],"parents":[2147483647,0,0,1,1,2,2,3,3,4,4,5,5,6,6],"right_children":[2,4,6,8,10,-1,-1,-1,-1,-1,-1,-1,-1,-1,-1],"split_conditions":[5E-1,5E-1,5.25E1,5E-1,8.9125E1,1.1587288E-2,2.376306E-3,4.074614E-3,-1.9464532E-3,5.5136317E-3,-2.9493223E-3,6.3486667E-3,1.5797945E-2,-1.1110869E-3,6.2267324E-3],"split_indices":[26,21,4,12,0,4,5,0,0,0,0,2147483647,2147483647,2147483647,2147483647],"split_type":[0,0,0,0,0,0,0,0,0,0,0,0,0,0,0],"sum_hessian":[2.47E2,2.39E2,8E0,1.51E2,8.8E1,4E0,4E0,2.3E1,1.28E2,5E1,3.8E1,2E0,2E0,2E0,2E0],"tree_param":{"num_deleted":"4","num_feature":"32","num_nodes":"15","size_leaf_vector":"0"}},{"base_weights":[2.4482731E-3,5.805881E-4,8.909959E-2,2.3520533E-3,-1.9722268E-1,1.00084245E-2,1.9684848E-1,-1.4394644E-2,1.6130121E-2,-2.6529247E-1,-1.02132656E-1,-0E0,3.5008725E-2],"categories":[],"categories_nodes":[],"categories_segments":[],"categories_sizes":[],"default_left":[1,1,0,1,0,0,0,0,0,1,1,1,1],"id":81,"left_children":[1,3,5,7,-1,-1,-1,-1,-1,-1,-1,-1,-1],"loss_changes":[3.908804E-2,8.292991E-2,4.119655E-2,5.5440556E-2,7.20904E-3,1.0376495E-3,0E0,0E0,0E0,0E0,0E0,0E0,0E0],"parents":[2147483647,0,0,1,1,2,2,3,3,4,4,5,5],"right_children":[2,4,6,8,-1,-1,-1,-1,-1,-1,-1,-1,-1],"split_conditions":[4.634233E-4,2.865011E-4,4.35E0,2.5E0,-1.9722268E-2,1.0008424E-3,1.968485E-2,-1.4394644E-3,1.6130122E-3,-2.6529247E-2,-1.0213266E-2,-0E0,3.5008725E-3],"split_indices":[14,14,2,7,0,1,0,0,0,2147483647,2147483647,2147483647,2147483647],"split_type":[0,0,0,0,0,0,0,0,0,0,0,0,0],"sum_hessian":[2.47E2,2.42E2,5E0,2.4E2,2E0,3E0,2E0,1.08E2,1.32E2,1E0,1E0,2E0,1E0],"tree_param":{"num_deleted":"4","num_feature":"32","num_nodes":"13","size_leaf_vector":"0"}},{"base_weights":[2.2039341E-3,3.0834225E-3,-1.8567106E-1,5.232554E-3,-6.792582E-2,5.2986193E-2,-3.2157774E-4,-1.1268285E-1,-2.9989392E-2],"categories":[],"categories_nodes":[],"categories_segments":[],"categories_sizes":[],"default_left":[1,1,0,0,0,0,0,0,0],"id":82,"left_children":[1,3,-1,5,7,-1,-1,-1,-1],"loss_changes":[3.906067E-2,3.6965486E-2,0E0,6.394484E-2,1.0290589E-2,0E0,0E0,0E0,0E0],"parents":[2147483647,0,0,1,1,3,3,4,4],"right_children":[2,4,-1,6,8,-1,-1,-1,-1],"split_conditions":[5E-1,5E-1,-1.8567106E-2,4.25E1,6.4449997E0,5.2986196E-3,-3.2157775E-5,-1.1268285E-2,-2.9989392E-3],"split_indices":[27,20,0,4,3,0,0,0,0],"split_type":[0,0,0,0,0,0,0,0,0],"sum_hessian":[2.47E2,2.46E2,1E0,2.39E2,7E0,2.5E1,2.14E2,3E0,4E0],"tree_param":{"num_deleted":"0","num_feature":"32","num_nodes":"9","size_leaf_vector":"0"}},{"base_weights":[1.9564382E-3,2.8031757E-3,-1.785688E-1,-7.364372E-4,6.6528626E-2,1.421867E-2,-1.56486E-2,1.7967038E-1,-1.8377449E-1],"categories":[],"categories_nodes":[],"categories_segments":[],"categories_sizes":[],"default_left":[1,1,0,0,0,0,0,0,0],"id":83,"left_children":[1,3,-1,5,7,-1,-1,-1,-1],"loss_changes":[3.606348E-2,5.617398E-2,0E0,5.202088E-2,3.7424934E-1,0E0,0E0,0E0,0E0],"parents":[2147483647,0,0,1,1,3,3,4,4],"right_children":[2,4,-1,6,8,-1,-1,-1,-1],"split_conditions":[1.125E2,8.1E1,-1.785688E-2,8.99E1,1.2000001E1,1.421867E-3,-1.56486E-3,1.7967038E-2,-1.837745E-2],"split_indices":[4,4,0,0,10,0,0,0,0],"split_type":[0,0,0,0,0,0,0,0,0],"sum_hessian":[2.47E2,2.46E2,1E0,2.33E2,1.3E1,1.16E2,1.17E2,9E0,4E0],"tree_param":{"num_deleted":"0","num_feature":"32","num_nodes":"9","size_leaf_vector":"0"}},{"base_weights":[1.7452674E-3,5.6379526E-3,-3.5593487E-2,1.35878995E-2,-2.3271602E-2,-5.569592E-2,9.2670456E-2,8.912151E-3,3.9582083E-1,1.1220682E-1,-3.604109E-2,-2.3855792E-2,-1.769292E-1,2.3360027E-2,1.19801134E-1],"categories":[],"categories_nodes":[],"categories_segments":[],"categories_sizes":[],"default_left":[1,1,1,1,0,1,0,0,0,0,0,0,0,1,1],"id":84,"left_children":[1,3,5,7,9,11,-1,-1,-1,-1,-1,-1,-1,-1,-1],"loss_changes":[3.5636008E-2,5.143956E-2,5.9707828E-2,3.1033027E-1,8.2855254E-2,7.515775E-2,4.117891E-3,0E0,0E0,0E0,0E0,0E0,0E0,0E0,0E0],"parents":[2147483647,0,0,1,1,2,2,3,3,4,4,5,5,6,6],"right_children":[2,4,6,8,10,12,-1,-1,-1,-1,-1,-1,-1,-1,-1],"split_conditions":[5E-1,8.99E1,8.835E1,8.9725E1,1.5E0,7.1149994E1,9.267046E-3,8.912151E-4,3.9582085E-2,1.12206815E-2,-3.604109E-3,-2.3855793E-3,-1.7692922E-2,2.3360027E-3,1.1980114E-2],"split_indices":[19,0,0,0,10,0,2,0,0,0,0,0,0,2147483647,2147483647],"split_type":[0,0,0,0,0,0,0,0,0,0,0,0,0,0,0],"sum_hessian":[2.47E2,2.24E2,2.3E1,1.76E2,4.8E1,2E1,3E0,1.74E2,2E0,4E0,4.4E1,1.6E1,4E0,1E0,2E0],"tree_param":{"num_deleted":"2","num_feature":"32","num_nodes":"15","size_leaf_vector":"0"}},{"base_weights":[1.5854276E-3,-3.608428E-2,5.512298E-3,-1.3329753E-1,-7.940853E-3,8.020402E-3,-1.00385115E-1,-1.9515322E-1,-3.087736E-2,-1.8509625E-1,2.916751E-3,-2.9581852E-2,1.5731778E-2,3.0907735E-2,-2.9418004E-1],"categories":[],"categories_nodes":[],"categories_segments":[],"categories_sizes":[],"default_left":[1,0,1,1,0,0,0,0,0,0,0,0,0,0,0],"id":85,"left_children":[1,3,5,7,9,11,13,-1,-1,-1,-1,-1,-1,-1,-1],"loss_changes":[3.6266208E-2,6.1681386E-2,5.867821E-2,2.944699E-2,3.6690827E-2,6.34394E-2,1.3330579E-1,0E0,0E0,0E0,0E0,0E0,0E0,0E0,0E0],"parents":[2147483647,0,0,1,1,2,2,3,3,4,4,5,5,6,6],"right_children":[2,4,6,8,10,12,14,-1,-1,-1,-1,-1,-1,-1,-1],"split_conditions":[5E-1,3E0,5E-1,8.5755005E1,2.38E1,1.5450001E1,2.675E1,-1.9515323E-2,-3.087736E-3,-1.8509625E-2,2.916751E-4,-2.9581853E-3,1.5731779E-3,3.0907735E-3,-2.9418005E-2],"split_indices":[11,7,24,0,4,3,3,0,0,0,0,0,0,0,0],"split_type":[0,0,0,0,0,0,0,0,0,0,0,0,0,0,0],"sum_hessian":[2.47E2,2.3E1,2.24E2,5E0,1.8E1,2.19E2,5E0,3E0,2E0,1E0,1.7E1,3.7E1,1.82E2,3E0,2E0],"tree_param":{"num_deleted":"0","num_feature":"32","num_nodes":"15","size_leaf_vector":"0"}},{"base_weights":[1.3867306E-3,4.5165424E-3,-4.6068106E-2,5.2503984E-2,-2.3469713E-4,-1.16534375E-1,-9.0399105E-3,2.4955249E-1,-9.6201E-3,3.63618E-3,-5.1165525E-2,-1.927554E-1,-5.7915792E-2,-2.9597016E-2,6.5920345E-2],"categories":[],"categories_nodes":[],"categories_segments":[],"categories_sizes":[],"default_left":[1,1,0,0,0,0,1,0,0,0,0,0,0,0,0],"id":86,"left_children":[1,3,5,7,9,11,13,-1,-1,-1,-1,-1,-1,-1,-1],"loss_changes":[3.6305744E-2,5.3442687E-2,3.8038418E-2,2.6093417E-1,4.2111624E-2,1.9163571E-2,1.5395628E-2,0E0,0E0,0E0,0E0,0E0,0E0,0E0,0E0],"parents":[2147483647,0,0,1,1,2,2,3,3,4,4,5,5,6,6],"right_children":[2,4,6,8,10,12,14,-1,-1,-1,-1,-1,-1,-1,-1],"split_conditions":[5E-1,5E-1,1.275E1,3.5E0,2.5E0,6.44E1,2.03E1,2.4955248E-2,-9.6201006E-4,3.63618E-4,-5.1165526E-3,-1.927554E-2,-5.7915794E-3,-2.9597017E-3,6.592035E-3],"split_indices":[17,12,2,7,9,0,3,0,0,0,0,0,0,0,0],"split_type":[0,0,0,0,0,0,0,0,0,0,0,0,0,0,0],"sum_hessian":[2.47E2,2.32E2,1.5E1,2.1E1,2.11E2,5E0,1E1,5E0,1.6E1,1.96E2,1.5E1,2E0,3E0,8E0,2E0],"tree_param":{"num_deleted":"0","num_feature":"32","num_nodes":"15","size_leaf_vector":"0"}},{"base_weights":[1.2352504E-3,-8.770024E-4,6.480514E-2,4.6806023E-3,-2.8718183E-2,8.072695E-2,-3.476337E-2,1.7875914E-3,2.7122554E-1,2.1775065E-2,-6.2745966E-2,1.5037957E-1,4.85028E-2],"categories":[],"categories_nodes":[],"categories_segments":[],"categories_sizes":[],"default_left":[1,1,0,1,0,1,0,0,0,0,0,0,0],"id":87,"left_children":[1,3,5,7,9,11,-1,-1,-1,-1,-1,-1,-1],"loss_changes":[3.382448E-2,3.7249826E-2,1.3581291E-2,1.5075088E-1,6.944509E-2,1.3217717E-2,0E0,0E0,0E0,0E0,0E0,0E0,0E0],"parents":[2147483647,0,0,1,1,2,2,3,3,4,4,5,5],"right_children":[2,4,6,8,10,12,-1,-1,-1,-1,-1,-1,-1],"split_conditions":[5E-1,3.033E1,1.2000001E1,1.01345E2,3.5E0,7.05E0,-3.476337E-3,1.7875915E-4,2.7122555E-2,2.1775065E-3,-6.274597E-3,1.5037957E-2,4.85028E-3],"split_indices":[22,2,8,0,6,3,0,0,0,0,0,0,0],"split_type":[0,0,0,0,0,0,0,0,0,0,0,0,0],"sum_hessian":[2.47E2,2.39E2,8E0,1.99E2,4E1,7E0,1E0,1.97E2,2E0,1.6E1,2.4E1,2E0,5E0],"tree_param":{"num_deleted":"0","num_feature":"32","num_nodes":"13","size_leaf_vector":"0"}},{"base_weights":[1.1361701E-3,3.1611626E-4,1.7541039E-1,-1.2428708E-2,1.0699464E-2,-5.9595916E-2,1.3802194E-3,4.510256E-3,1.0721398E-1],"categories":[],"categories_nodes":[],"categories_segments":[],"categories_sizes":[],"default_left":[1,1,0,0,1,0,0,0,0],"id":88,"left_children":[1,3,-1,5,7,-1,-1,-1,-1],"loss_changes":[3.35513E-2,3.256339E-2,0E0,7.2301656E-2,8.013351E-2,0E0,0E0,0E0,0E0],"parents":[2147483647,0,0,1,1,3,3,4,4],"right_children":[2,4,-1,6,8,-1,-1,-1,-1],"split_conditions":[3.5E0,2.5E0,1.754104E-2,2.36E1,9.9604996E1,-5.959592E-3,1.3802193E-4,4.510256E-4,1.07213985E-2],"split_indices":[5,7,0,2,0,0,0,0,0],"split_type":[0,0,0,0,0,0,0,0,0],"sum_hessian":[2.47E2,2.46E2,1E0,1.1E2,1.36E2,2.5E1,8.5E1,1.28E2,8E0],"tree_param":{"num_deleted":"0","num_feature":"32","num_nodes":"9","size_leaf_vector":"0"}},{"base_weights":[1.0397877E-3,-5.985192E-4,8.0751576E-2,3.2032186E-3,-6.784419E-2,7.966023E-3,1.795897E-1,-2.8920422E-5,1.0567333E-1,-8.630253E-3,-1.9517648E-1,-2.5950116E-3,3.6494724E-2],"categories":[],"categories_nodes":[],"categories_segments":[],"categories_sizes":[],"default_left":[1,1,0,1,0,0,0,0,0,0,0,1,1],"id":89,"left_children":[1,3,5,7,9,-1,-1,-1,-1,-1,-1,-1,-1],"loss_changes":[3.3075735E-2,6.256111E-2,3.4670718E-2,7.693413E-2,9.6565485E-2,1.2824745E-3,0E0,0E0,0E0,0E0,0E0,0E0,0E0],"parents":[2147483647,0,0,1,1,2,2,3,3,4,4,5,5],"right_children":[2,4,6,8,10,-1,-1,-1,-1,-1,-1,-1,-1],"split_conditions":[4.634233E-4,1.0237118E-4,4.35E0,9.0363035E-5,3.5E0,7.966023E-4,1.795897E-2,-2.8920422E-6,1.0567333E-2,-8.630254E-4,-1.9517649E-2,-2.5950116E-4,3.6494725E-3],"split_indices":[14,14,2,14,6,1,0,0,0,0,0,2147483647,2147483647],"split_type":[0,0,0,0,0,0,0,0,0,0,0,0,0],"sum_hessian":[2.47E2,2.42E2,5E0,2.29E2,1.3E1,3E0,2E0,2.22E2,7E0,9E0,4E0,2E0,1E0],"tree_param":{"num_deleted":"2","num_feature":"32","num_nodes":"13","size_leaf_vector":"0"}},{"base_weights":[9.353543E-4,1.7317936E-3,-1.6824396E-1,2.532121E-3,-1.6766222E-1,6.210847E-3,-3.2415856E-2],"categories":[],"categories_nodes":[],"categories_segments":[],"categories_sizes":[],"default_left":[1,1,0,1,0,0,0],"id":90,"left_children":[1,3,-1,5,-1,-1,-1],"loss_changes":[3.1658527E-2,3.1755093E-2,0E0,3.1269126E-2,0E0,0E0,0E0],"parents":[2147483647,0,0,1,1,3,3],"right_children":[2,4,-1,6,-1,-1,-1],"split_conditions":[5E-1,4.814E1,-1.6824396E-2,5E-1,-1.6766222E-2,6.210847E-4,-3.2415856E-3],"split_indices":[27,2,0,19,0,0,0],"split_type":[0,0,0,0,0,0,0],"sum_hessian":[2.47E2,2.46E2,1E0,2.45E2,1E0,2.22E2,2.3E1],"tree_param":{"num_deleted":"0","num_feature":"32","num_nodes":"7","size_leaf_vector":"0"}},{"base_weights":[8.1524E-4,3.6415989E-3,-4.1971475E-2,4.7650237E-2,-7.115343E-4,-1.0410874E-1,-9.189572E-3,2.2525193E-1,-8.283535E-3,1.3876065E-2,-1.4983223E-2,-1.694803E-1,-5.3240635E-2,-2.716856E-2,5.5833653E-2],"categories":[],"categories_nodes":[],"categories_segments":[],"categories_sizes":[],"default_left":[1,1,0,0,0,0,1,0,0,0,0,0,0,0,0],"id":91,"left_children":[1,3,5,7,9,11,13,-1,-1,-1,-1,-1,-1,-1,-1],"loss_changes":[2.9513936E-2,4.4937436E-2,2.9529713E-2,2.1196227E-1,4.39807E-2,1.3829637E-2,1.1672466E-2,0E0,0E0,0E0,0E0,0E0,0E0,0E0,0E0],"parents":[2147483647,0,0,1,1,2,2,3,3,4,4,5,5,6,6],"right_children":[2,4,6,8,10,12,14,-1,-1,-1,-1,-1,-1,-1,-1],"split_conditions":[5E-1,5E-1,1.275E1,3.5E0,8.99E1,6.44E1,2.03E1,2.2525193E-2,-8.283535E-4,1.3876065E-3,-1.4983224E-3,-1.694803E-2,-5.3240634E-3,-2.716856E-3,5.5833654E-3],"split_indices":[17,12,2,7,0,0,3,0,0,0,0,0,0,0,0],"split_type":[0,0,0,0,0,0,0,0,0,0,0,0,0,0,0],"sum_hessian":[2.47E2,2.32E2,1.5E1,2.1E1,2.11E2,5E0,1E1,5E0,1.6E1,1.04E2,1.07E2,2E0,3E0,8E0,2E0],"tree_param":{"num_deleted":"0","num_feature":"32","num_nodes":"15","size_leaf_vector":"0"}},{"base_weights":[7.2245457E-4,-1.2664493E-3,6.06576E-2,-1.035729E-2,1.42131485E-2,1.460155E-1,-2.3740731E-2,-2.8189335E-2,1.806266E-2,4.642685E-2,-2.7921438E-2,-4.0806197E-2,2.108227E-1,3.3506773E-2,-8.4619634E-2],"categories":[],"categories_nodes":[],"categories_segments":[],"categories_sizes":[],"default_left":[1,1,0,0,1,0,0,0,0,0,0,0,0,0,0],"id":92,"left_children":[1,3,5,7,9,11,13,-1,-1,-1,-1,-1,-1,-1,-1],"loss_changes":[3.0057209E-2,3.3622924E-2,5.9922323E-2,7.6727524E-2,1.1989379E-1,5.2200764E-2,1.508384E-2,0E0,0E0,0E0,0E0,0E0,0E0,0E0,0E0],"parents":[2147483647,0,0,1,1,2,2,3,3,4,4,5,5,6,6],"right_children":[2,4,6,8,10,12,14,-1,-1,-1,-1,-1,-1,-1,-1],"split_conditions":[5E-1,5E-1,5.25E1,1.2000001E1,8.9125E1,1.21E2,3.5E0,-2.8189335E-3,1.806266E-3,4.6426854E-3,-2.792144E-3,-4.0806197E-3,2.108227E-2,3.3506774E-3,-8.461963E-3],"split_indices":[25,21,4,10,0,0,7,0,0,0,0,0,0,0,0],"split_type":[0,0,0,0,0,0,0,0,0,0,0,0,0,0,0],"sum_hessian":[2.47E2,2.39E2,8E0,1.51E2,8.8E1,4E0,4E0,9.3E1,5.8E1,5E1,3.8E1,1E0,3E0,2E0,2E0],"tree_param":{"num_deleted":"0","num_feature":"32","num_nodes":"15","size_leaf_vector":"0"}},{"base_weights":[6.5144425E-4,-1.3217832E-3,6.012472E-2,-1.06334705E-2,1.4536651E-2,9.836761E-2,1.7976351E-2,-1.822341E-2,8.435879E-2,7.430062E-2,-7.726427E-4,4.5128886E-2,1.4216025E-1,-1.3158998E-2,5.301759E-2],"categories":[],"categories_nodes":[],"categories_segments":[],"categories_sizes":[],"default_left":[1,1,0,1,1,0,0,0,0,0,0,1,1,1,1],"id":93,"left_children":[1,3,5,7,9,-1,-1,-1,-1,-1,-1,-1,-1,-1,-1],"loss_changes":[2.959422E-2,3.528403E-2,1.1715926E-2,1.084333E-1,8.13476E-2,7.0445575E-3,4.941539E-3,0E0,0E0,0E0,0E0,0E0,0E0,0E0,0E0],"parents":[2147483647,0,0,1,1,2,2,3,3,4,4,5,5,6,6],"right_children":[2,4,6,8,10,-1,-1,-1,-1,-1,-1,-1,-1,-1,-1],"split_conditions":[5E-1,1.5450001E1,5.25E1,2.5E0,2.325E1,9.836761E-3,1.7976351E-3,-1.8223411E-3,8.435879E-3,7.4300617E-3,-7.7264274E-5,4.512889E-3,1.4216025E-2,-1.3158999E-3,5.301759E-3],"split_indices":[26,3,4,5,2,4,5,0,0,0,0,2147483647,2147483647,2147483647,2147483647],"split_type":[0,0,0,0,0,0,0,0,0,0,0,0,0,0,0],"sum_hessian":[2.47E2,2.39E2,8E0,1.51E2,8.8E1,4E0,4E0,1.4E2,1.1E1,1.8E1,7E1,2E0,2E0,2E0,2E0],"tree_param":{"num_deleted":"4","num_feature":"32","num_nodes":"15","size_leaf_vector":"0"}},{"base_weights":[6.00754E-4,1.3586206E-3,-1.5991838E-1,-1.6604948E-3,5.5833425E-2,1.1457951E-2,-1.4750892E-2,1.5757239E-1,-1.6890019E-1],"categories":[],"categories_nodes":[],"categories_segments":[],"categories_sizes":[],"default_left":[1,1,0,0,0,0,0,0,0],"id":94,"left_children":[1,3,-1,5,7,-1,-1,-1,-1],"loss_changes":[2.8496362E-2,4.102602E-2,